{"learner":{"attributes":{"scikit_learn":"{\"_estimator_type\": \"classifier\"}"},"feature_names":["vcdr","disc_area","cup_area","disc_h","cup_h"],"feature_types":["float","float","float","float","float"],"gradient_booster":{"model":{"cats":{"enc":[],"feature_segments":[],"sorted_idx":[]},"gbtree_model_param":{"num_parallel_tree":"1","num_trees":"300"},"iteration_indptr":[0,1,2,3,4,5,6,7,8,9,10,11,12,13,14,15,16,17,18,19,20,21,22,23,24,25,26,27,28,29,30,31,32,33,34,35,36,37,38,39,40,41,42,43,44,45,46,47,48,49,50,51,52,53,54,55,56,57,58,59,60,61,62,63,64,65,66,67,68,69,70,71,72,73,74,75,76,77,78,79,80,81,82,83,84,85,86,87,88,89,90,91,92,93,94,95,96,97,98,99,100,101,102,103,104,105,106,107,108,109,110,111,112,113,114,115,116,117,118,119,120,121,122,123,124,125,126,127,128,129,130,131,132,133,134,135,136,137,138,139,140,141,142,143,144,145,146,147,148,149,150,151,152,153,154,155,156,157,158,159,160,161,162,163,164,165,166,167,168,169,170,171,172,173,174,175,176,177,178,179,180,181,182,183,184,185,186,187,188,189,190,191,192,193,194,195,196,197,198,199,200,201,202,203,204,205,206,207,208,209,210,211,212,213,214,215,216,217,218,219,220,221,222,223,224,225,226,227,228,229,230,231,232,233,234,235,236,237,238,239,240,241,242,243,244,245,246,247,248,249,250,251,252,253,254,255,256,257,258,259,260,261,262,263,264,265,266,267,268,269,270,271,272,273,274,275,276,277,278,279,280,281,282,283,284,285,286,287,288,289,290,291,292,293,294,295,296,297,298,299,300],"tree_info":[0,0,0,0,0,0,0,0,0,0,0,0,0,0,0,0,0,0,0,0,0,0,0,0,0,0,0,0,0,0,0,0,0,0,0,0,0,0,0,0,0,0,0,0,0,0,0,0,0,0,0,0,0,0,0,0,0,0,0,0,0,0,0,0,0,0,0,0,0,0,0,0,0,0,0,0,0,0,0,0,0,0,0,0,0,0,0,0,0,0,0,0,0,0,0,0,0,0,0,0,0,0,0,0,0,0,0,0,0,0,0,0,0,0,0,0,0,0,0,0,0,0,0,0,0,0,0,0,0,0,0,0,0,0,0,0,0,0,0,0,0,0,0,0,0,0,0,0,0,0,0,0,0,0,0,0,0,0,0,0,0,0,0,0,0,0,0,0,0,0,0,0,0,0,0,0,0,0,0,0,0,0,0,0,0,0,0,0,0,0,0,0,0,0,0,0,0,0,0,0,0,0,0,0,0,0,0,0,0,0,0,0,0,0,0,0,0,0,0,0,0,0,0,0,0,0,0,0,0,0,0,0,0,0,0,0,0,0,0,0,0,0,0,0,0,0,0,0,0,0,0,0,0,0,0,0,0,0,0,0,0,0,0,0,0,0,0,0,0,0,0,0,0,0,0,0,0,0,0,0,0,0,0,0,0,0,0,0,0,0,0,0,0,0,0,0,0,0,0,0],"trees":[{"base_weights":[-1.915972E-2,-4.3630925E-1,1.0341707E0,-7.0581263E-1,-2.9687008E-2,6.6243464E-1,1.479255E-2,1.9600613E-3,-8.171359E-1,8.542222E-3,-2.8820825E-1,4.4981822E-1,9.549026E-3,-3.6721732E-3,-1.0299376E-2,-4.15606E-3,3.7134995E-3,7.305582E-3,1.0787636E-3],"categories":[],"categories_nodes":[],"categories_segments":[],"categories_sizes":[],"default_left":[0,0,0,0,0,0,0,0,0,0,0,0,0,0,0,0,0,0,0],"id":0,"left_children":[1,3,5,7,9,11,-1,-1,13,-1,15,17,-1,-1,-1,-1,-1,-1,-1],"loss_changes":[1.8005328E2,3.1563477E1,1.5084938E1,1.8602417E1,2.762192E1,1.9668102E0,0E0,0E0,1.2970238E1,0E0,8.431636E0,3.3387747E0,0E0,0E0,0E0,0E0,0E0,0E0,0E0],"parents":[2147483647,0,0,1,1,2,2,3,3,4,4,5,5,8,8,10,10,11,11],"right_children":[2,4,6,8,10,12,-1,-1,14,-1,16,18,-1,-1,-1,-1,-1,-1,-1],"split_conditions":[5.903614E-1,4.886E3,6.7391306E-1,3.699E3,3.9E1,2.594E3,1.479255E-2,1.9600613E-3,3.5E1,8.542222E-3,9.5E1,5.066E3,9.549026E-3,-3.6721732E-3,-1.0299376E-2,-4.15606E-3,3.7134995E-3,7.305582E-3,1.0787636E-3],"split_indices":[0,1,0,1,4,2,0,0,4,0,3,1,0,0,0,0,0,0,0],"split_type":[0,0,0,0,0,0,0,0,0,0,0,0,0,0,0,0,0,0,0],"sum_hessian":[4.0708105E2,2.9311853E2,1.1396253E2,1.7391757E2,1.1920095E2,6.603406E1,4.7928474E1,1.7955723E1,1.5596185E2,2.5055859E1,9.4145096E1,4.3155994E1,2.2878065E1,5.3339237E1,1.0262261E2,8.079496E1,1.3350136E1,2.0844687E1,2.2311308E1],"tree_param":{"num_deleted":"0","num_feature":"5","num_nodes":"19","size_leaf_vector":"1"}},{"base_weights":[1.7879613E-2,-4.1708165E-1,1.0208374E0,2.3352863E-1,-5.166378E-1,7.400549E-1,1.3585398E-2,-8.551747E-2,8.60204E-3,-1.1807886E-2,-3.8887843E-1,9.06296E-1,4.4754526E-1,3.7108418E-3,-7.1087494E-3,2.328167E-3,-5.3011314E-3,4.582113E-3,1.1742381E-2,6.710049E-3,-0E0],"categories":[],"categories_nodes":[],"categories_segments":[],"categories_sizes":[],"default_left":[0,0,0,0,0,0,0,0,0,0,0,0,0,0,0,0,0,0,0,0,0],"id":1,"left_children":[1,3,5,7,9,11,-1,13,-1,-1,15,17,19,-1,-1,-1,-1,-1,-1,-1,-1],"loss_changes":[1.7945967E2,1.9005985E1,7.7151184E0,8.501736E0,1.8675644E1,1.4382133E0,0E0,8.258107E0,0E0,0E0,1.9283985E1,2.46809E0,3.2614756E0,0E0,0E0,0E0,0E0,0E0,0E0,0E0,0E0],"parents":[2147483647,0,0,1,1,2,2,3,3,4,4,5,5,7,7,10,10,11,11,12,12],"right_children":[2,4,6,8,10,12,-1,14,-1,-1,16,18,20,-1,-1,-1,-1,-1,-1,-1,-1],"split_conditions":[5.875E-1,3.2E1,6.7391306E-1,4.084507E-1,9.66E2,2.269E3,1.3585398E-2,3.69863E-1,8.60204E-3,-1.1807886E-2,4.5679012E-1,5.1E1,6.385542E-1,3.7108418E-3,-7.1087494E-3,2.328167E-3,-5.3011314E-3,4.582113E-3,1.1742381E-2,6.710049E-3,-0E0],"split_indices":[0,4,0,0,2,2,0,0,0,0,0,4,0,0,0,0,0,0,0,0,0],"split_type":[0,0,0,0,0,0,0,0,0,0,0,0,0,0,0,0,0,0,0,0,0],"sum_hessian":[4.06035E2,2.8333148E2,1.2270352E2,3.5911304E1,2.4742017E2,7.210002E1,5.0603497E1,2.3883404E1,1.2027903E1,3.599423E1,2.1142595E2,4.1116837E1,3.0983189E1,1.3350053E1,1.053335E1,3.758867E1,1.7383727E2,1.8811087E1,2.230575E1,1.9916609E1,1.1066579E1],"tree_param":{"num_deleted":"0","num_feature":"5","num_nodes":"21","size_leaf_vector":"1"}},{"base_weights":[2.8852569E-2,-3.5746402E-1,1.1376079E0,1.2528263E-1,-4.591615E-1,8.145642E-1,1.4602565E-2,-1.4778489E-1,4.65275E-1,-5.531473E-1,1.867148E-1,1.1051557E-2,4.8010942E-1,2.707849E-3,-4.8204623E-3,8.553807E-3,-0E0,-6.2463675E-3,4.5329984E-3,3.806999E-3,-1.0030986E-3,-1.4524837E-3,8.437564E-3],"categories":[],"categories_nodes":[],"categories_segments":[],"categories_sizes":[],"default_left":[0,0,0,0,0,0,0,0,0,0,0,0,0,0,0,0,0,0,0,0,0,0,0],"id":2,"left_children":[1,3,5,7,9,11,-1,13,15,17,19,-1,21,-1,-1,-1,-1,-1,-1,-1,-1,-1,-1],"loss_changes":[1.7467813E2,1.5203167E1,6.348877E0,5.2970886E0,1.577158E1,3.0702705E0,0E0,4.5032835E0,4.777252E0,1.6597366E1,2.1356506E0,0E0,8.330414E0,0E0,0E0,0E0,0E0,0E0,0E0,0E0,0E0,0E0,0E0],"parents":[2147483647,0,0,1,1,2,2,3,3,4,4,5,5,7,7,8,8,9,9,10,10,12,12],"right_children":[2,4,6,8,10,12,-1,14,16,18,20,-1,22,-1,-1,-1,-1,-1,-1,-1,-1,-1,-1],"split_conditions":[6E-1,8.46E2,6.7391306E-1,4.0697673E-1,5.729167E-1,5.4E1,1.4602565E-2,3.6486486E-1,3.2E1,6.17E3,2.026E3,1.1051557E-2,2.522E3,2.707849E-3,-4.8204623E-3,8.553807E-3,-0E0,-6.2463675E-3,4.5329984E-3,3.806999E-3,-1.0030986E-3,-1.4524837E-3,8.437564E-3],"split_indices":[0,2,0,0,0,4,0,0,4,1,2,0,2,0,0,0,0,0,0,0,0,0,0],"split_type":[0,0,0,0,0,0,0,0,0,0,0,0,0,0,0,0,0,0,0,0,0,0,0],"sum_hessian":[4.0209134E2,2.985298E2,1.0356156E2,5.0154583E1,2.4837521E2,5.6820286E1,4.6741272E1,2.6810741E1,2.3343842E1,2.18426E2,2.994922E1,2.633792E1,3.0482368E1,1.0744438E1,1.6066303E1,1.2027668E1,1.1316174E1,2.0557594E2,1.2850043E1,1.9560549E1,1.0388673E1,1.0638591E1,1.9843777E1],"tree_param":{"num_deleted":"0","num_feature":"5","num_nodes":"23","size_leaf_vector":"1"}},{"base_weights":[-9.784385E-3,-4.591816E-1,1.0702766E0,-6.194708E-1,-1.6686056E-2,6.768882E-1,1.384662E-2,-4.855416E-1,-1.280631E-2,5.7956493E-3,-1.6719441E-1,5.494951E-4,8.120702E-3,-8.266503E-3,-3.350967E-3,-4.060339E-3,1.8982096E-3],"categories":[],"categories_nodes":[],"categories_segments":[],"categories_sizes":[],"default_left":[0,0,0,0,0,0,0,0,0,0,0,0,0,0,0,0,0],"id":3,"left_children":[1,3,5,7,9,11,-1,13,-1,-1,15,-1,-1,-1,-1,-1,-1],"loss_changes":[1.9992802E2,2.0081375E1,1.0997772E1,1.5844238E1,7.0920925E0,4.0009155E0,0E0,7.600315E0,0E0,0E0,6.1632695E0,0E0,0E0,0E0,0E0,0E0,0E0],"parents":[2147483647,0,0,1,1,2,2,3,3,4,4,5,5,7,7,10,10],"right_children":[2,4,6,8,10,12,-1,14,-1,-1,16,-1,-1,-1,-1,-1,-1],"split_conditions":[5.862069E-1,5.195E3,6.533333E-1,8.5E1,4.5679012E-1,5.1E1,1.384662E-2,4.121E3,-1.280631E-2,5.7956493E-3,5.411765E-1,5.494951E-4,8.120702E-3,-8.266503E-3,-3.350967E-3,-4.060339E-3,1.8982096E-3],"split_indices":[0,1,0,3,0,4,0,1,0,0,0,0,0,0,0,0,0],"split_type":[0,0,0,0,0,0,0,0,0,0,0,0,0,0,0,0,0],"sum_hessian":[4.0913702E2,2.9038696E2,1.1875008E2,2.109227E2,7.946425E1,5.6961468E1,6.178861E1,1.7953593E2,3.1386774E1,1.3527678E1,6.593657E1,1.1993369E1,4.4968098E1,5.0163105E1,1.2937282E2,4.102061E1,2.4915956E1],"tree_param":{"num_deleted":"0","num_feature":"5","num_nodes":"17","size_leaf_vector":"1"}},{"base_weights":[-9.132543E-3,-3.9202783E-1,1.0664343E0,-4.6987873E-1,3.798801E-1,6.3674414E-1,1.3416467E-2,-9.204025E-2,-5.9874624E-1,-5.582695E-4,7.854078E-3,8.948523E-1,4.5364292E-4,-2.9158064E-3,6.775371E-3,-7.484186E-3,-2.827354E-4,3.4966234E-3,1.3776589E-2],"categories":[],"categories_nodes":[],"categories_segments":[],"categories_sizes":[],"default_left":[0,0,0,0,0,0,0,0,0,0,0,0,0,0,0,0,0,0,0],"id":4,"left_children":[1,3,5,7,9,11,-1,13,15,-1,-1,17,-1,-1,-1,-1,-1,-1,-1],"loss_changes":[1.6867253E2,1.8709583E1,8.9988785E0,1.274147E1,5.7241955E0,6.169159E0,0E0,1.1537362E1,1.6689713E1,0E0,0E0,5.60355E0,0E0,0E0,0E0,0E0,0E0,0E0,0E0],"parents":[2147483647,0,0,1,1,2,2,3,3,4,4,5,5,7,7,8,8,11,11],"right_children":[2,4,6,8,10,12,-1,14,16,-1,-1,18,-1,-1,-1,-1,-1,-1,-1],"split_conditions":[6E-1,9.3E1,6.458333E-1,4.375E-1,6.17E3,2.269E3,1.3416467E-2,4.318182E-1,5.5E-1,-5.582695E-4,7.854078E-3,2.083E3,4.5364292E-4,-2.9158064E-3,6.775371E-3,-7.484186E-3,-2.827354E-4,3.4966234E-3,1.3776589E-2],"split_indices":[0,3,0,0,1,2,0,0,0,0,0,2,0,0,0,0,0,0,0],"split_type":[0,0,0,0,0,0,0,0,0,0,0,0,0,0,0,0,0,0,0],"sum_hessian":[4.0717618E2,3.0190173E2,1.0527443E2,2.7613058E2,2.5771154E1,4.5108013E1,6.016642E1,7.3072105E1,2.0305849E2,1.2065976E1,1.3705178E1,2.9510744E1,1.5597268E1,6.0044952E1,1.3027151E1,1.5897273E2,4.4085754E1,1.6452312E1,1.3058432E1],"tree_param":{"num_deleted":"0","num_feature":"5","num_nodes":"19","size_leaf_vector":"1"}},{"base_weights":[8.448696E-2,-2.607222E-1,1.0451325E0,3.336347E-1,-3.175903E-1,3.7012845E-1,1.1918724E0,-9.4059855E-4,6.758707E-3,-6.317204E-1,-1.04976155E-1,7.811971E-3,-9.201616E-4,8.353965E-1,1.4229866E0,-7.802444E-3,-2.5374442E-5,3.4845574E-3,-2.7479117E-3,1.0513284E-2,4.1841916E-3,1.6817253E-2,3.7608661E-3],"categories":[],"categories_nodes":[],"categories_segments":[],"categories_sizes":[],"default_left":[0,0,0,0,0,0,0,0,0,0,0,0,0,0,0,0,0,0,0,0,0,0,0],"id":5,"left_children":[1,3,5,7,9,11,13,-1,-1,15,17,-1,-1,19,21,-1,-1,-1,-1,-1,-1,-1,-1],"loss_changes":[1.4241208E2,1.08023205E1,8.810722E0,4.6379404E0,1.842975E1,5.469954E0,2.8794708E0,0E0,0E0,9.897953E0,1.3717548E1,0E0,0E0,1.4703407E0,1.0436539E1,0E0,0E0,0E0,0E0,0E0,0E0,0E0,0E0],"parents":[2147483647,0,0,1,1,2,2,3,3,4,4,5,5,6,6,9,9,10,10,13,13,14,14],"right_children":[2,4,6,8,10,12,14,-1,-1,16,18,-1,-1,20,22,-1,-1,-1,-1,-1,-1,-1,-1],"split_conditions":[5.9574467E-1,3.747E3,2.083E3,3.528E3,4.582E3,7.8E1,6.7948717E-1,-9.4059855E-4,6.758707E-3,1.255E3,3.9E1,7.811971E-3,-9.201616E-4,6.3414633E-1,6.068E3,-7.802444E-3,-2.5374442E-5,3.4845574E-3,-2.7479117E-3,1.0513284E-2,4.1841916E-3,1.6817253E-2,3.7608661E-3],"split_indices":[0,1,2,1,1,3,0,0,0,2,4,0,0,0,1,0,0,0,0,0,0,0,0],"split_type":[0,0,0,0,0,0,0,0,0,0,0,0,0,0,0,0,0,0,0,0,0,0,0],"sum_hessian":[4.2343015E2,3.1180048E2,1.1162965E2,2.4842375E1,2.869581E2,2.240875E1,8.92209E1,1.0388349E1,1.4454025E1,1.1233752E2,1.7462059E2,1.2274181E1,1.0134569E1,4.042485E1,4.879605E1,8.920935E1,2.3128168E1,4.5400818E1,1.2921977E2,2.3048397E1,1.7376451E1,3.7387787E1,1.1408265E1],"tree_param":{"num_deleted":"0","num_feature":"5","num_nodes":"23","size_leaf_vector":"1"}},{"base_weights":[3.143689E-2,-3.327882E-1,1.085979E0,-5.277891E-1,-6.006139E-2,1.1729481E-2,6.2125027E-3,1.9113385E-3,-6.336841E-1,4.2370582E-1,-2.2423325E-1,-5.004672E-3,-1.1607767E-2,4.4620095E-4,8.718201E-3,-4.7576874E-3,2.5006651E-3],"categories":[],"categories_nodes":[],"categories_segments":[],"categories_sizes":[],"default_left":[0,0,0,0,0,0,0,0,0,0,0,0,0,0,0,0,0],"id":6,"left_children":[1,3,5,7,9,-1,-1,-1,11,13,15,-1,-1,-1,-1,-1,-1],"loss_changes":[1.6355032E2,1.607275E1,1.1741333E0,1.4461906E1,1.07520685E1,0E0,0E0,0E0,8.37027E0,4.693319E0,1.2873413E1,0E0,0E0,0E0,0E0,0E0,0E0],"parents":[2147483647,0,0,1,1,2,2,3,3,4,4,8,8,9,9,10,10],"right_children":[2,4,6,8,10,-1,-1,-1,12,14,16,-1,-1,-1,-1,-1,-1],"split_conditions":[6.0273975E-1,4.852E3,6.127E3,7.3E1,1.251E3,1.1729481E-2,6.2125027E-3,1.9113385E-3,8.3E1,4.4871795E-1,5.625E-1,-5.004672E-3,-1.1607767E-2,4.4620095E-4,8.718201E-3,-4.7576874E-3,2.5006651E-3],"split_indices":[0,1,1,3,2,0,0,0,3,0,0,0,0,0,0,0,0],"split_type":[0,0,0,0,0,0,0,0,0,0,0,0,0,0,0,0,0],"sum_hessian":[4.1996893E2,3.1246735E2,1.0750158E2,1.7896756E2,1.3349979E2,8.6175125E1,2.132646E1,2.1557829E1,1.5740973E2,3.1481112E1,1.0201868E2,1.3027924E2,2.7130491E1,1.945431E1,1.2026801E1,6.803816E1,3.3980515E1],"tree_param":{"num_deleted":"0","num_feature":"5","num_nodes":"17","size_leaf_vector":"1"}},{"base_weights":[3.621427E-2,-3.302322E-1,9.736351E-1,8.729905E-2,-4.852695E-1,1.6239766E-3,1.091522E0,-9.3488805E-2,9.745557E-3,-7.3751646E-1,-2.4384333E-1,1.2776671E-2,7.606574E-1,5.6013768E-3,-3.7455352E-3,-4.529133E-3,-1.2689403E-2,2.217575E-3,-4.21254E-3,2.3850224E-3,1.0003528E-2],"categories":[],"categories_nodes":[],"categories_segments":[],"categories_sizes":[],"default_left":[0,0,0,0,0,0,0,0,0,0,0,0,0,0,0,0,0,0,0,0,0],"id":7,"left_children":[1,3,5,7,9,-1,11,13,-1,15,17,-1,19,-1,-1,-1,-1,-1,-1,-1,-1],"loss_changes":[1.4273955E2,1.9694057E1,9.58107E0,1.3945248E1,1.196357E1,0E0,2.221901E0,1.2653572E1,0E0,1.2832039E1,1.0021324E1,0E0,3.6838531E0,0E0,0E0,0E0,0E0,0E0,0E0,0E0,0E0],"parents":[2147483647,0,0,1,1,2,2,3,3,4,4,6,6,7,7,9,9,10,10,12,12],"right_children":[2,4,6,8,10,-1,12,14,-1,16,18,-1,20,-1,-1,-1,-1,-1,-1,-1,-1],"split_conditions":[5.890411E-1,4.3589744E-1,5.1E1,5.095E3,4.2E1,1.6239766E-3,5.758E3,7.4E1,9.745557E-3,3.9E1,1.45E3,1.2776671E-2,9.6E1,5.6013768E-3,-3.7455352E-3,-4.529133E-3,-1.2689403E-2,2.217575E-3,-4.21254E-3,2.3850224E-3,1.0003528E-2],"split_indices":[0,0,4,1,4,0,1,3,0,4,2,0,3,0,0,0,0,0,0,0,0],"split_type":[0,0,0,0,0,0,0,0,0,0,0,0,0,0,0,0,0,0,0,0,0],"sum_hessian":[4.0978195E2,2.9477884E2,1.150031E2,7.830885E1,2.1647E2,1.6271164E1,9.873193E1,6.560362E1,1.2705232E1,1.0182717E2,1.1464282E2,5.7587494E1,4.114444E1,1.8060207E1,4.7543415E1,6.9951195E1,3.1875982E1,2.9937517E1,8.470531E1,1.55129175E1,2.5631521E1],"tree_param":{"num_deleted":"0","num_feature":"5","num_nodes":"21","size_leaf_vector":"1"}},{"base_weights":[1.6464729E-2,-3.5681963E-1,9.361909E-1,7.268802E-2,-4.1471854E-1,6.433224E-3,1.2105283E-2,5.8622174E-3,-4.1621774E-3,-9.523139E-1,-3.3424452E-1,-1.2611998E-2,-4.0105763E-3,2.0655936E-3,-4.1860286E-3],"categories":[],"categories_nodes":[],"categories_segments":[],"categories_sizes":[],"default_left":[0,0,0,0,0,0,0,0,0,0,0,0,0,0,0],"id":8,"left_children":[1,3,5,7,9,-1,-1,-1,-1,11,13,-1,-1,-1,-1],"loss_changes":[1.4026147E2,7.5814934E0,6.087059E0,9.180197E0,9.184345E0,0E0,0E0,0E0,0E0,2.5585976E0,1.0787447E1,0E0,0E0,0E0,0E0],"parents":[2147483647,0,0,1,1,2,2,3,3,4,4,9,9,10,10],"right_children":[2,4,6,8,10,-1,-1,-1,-1,12,14,-1,-1,-1,-1],"split_conditions":[5.862069E-1,7.4E1,6.533333E-1,4.3589744E-1,4.121E3,6.433224E-3,1.2105283E-2,5.8622174E-3,-4.1621774E-3,4.4705883E-1,4.267E3,-1.2611998E-2,-4.0105763E-3,2.0655936E-3,-4.1860286E-3],"split_indices":[0,3,0,0,1,0,0,0,0,0,1,0,0,0,0],"split_type":[0,0,0,0,0,0,0,0,0,0,0,0,0,0,0],"sum_hessian":[4.0291162E2,2.8669077E2,1.16220856E2,3.1943571E1,2.547472E2,6.121067E1,5.501019E1,1.63828E1,1.5560773E1,2.8729544E1,2.2601765E2,1.5599112E1,1.3130432E1,2.8507929E1,1.9750972E2],"tree_param":{"num_deleted":"0","num_feature":"5","num_nodes":"15","size_leaf_vector":"1"}},{"base_weights":[-6.913538E-2,-4.3189406E-1,9.2042524E-1,5.7460493E-3,-5.293582E-1,1.066548E-3,1.0065777E0,-0E0,-5.7451195E-1,7.3317057E-3,1.2523658E-2,-1.150617E-2,-4.7330353E-3],"categories":[],"categories_nodes":[],"categories_segments":[],"categories_sizes":[],"default_left":[0,0,0,0,0,0,0,0,0,0,0,0,0],"id":9,"left_children":[1,3,5,-1,7,-1,9,-1,11,-1,-1,-1,-1],"loss_changes":[1.421665E2,2.913668E1,6.0970383E0,0E0,6.583618E0,0E0,2.5231247E0,0E0,1.1692001E1,0E0,0E0,0E0,0E0],"parents":[2147483647,0,0,1,1,2,2,4,4,6,6,8,8],"right_children":[2,4,6,-1,8,-1,10,-1,12,-1,-1,-1,-1],"split_conditions":[5.9574467E-1,3.722E3,5.1E1,5.7460493E-3,3.2E1,1.066548E-3,6.7391306E-1,-0E0,9.66E2,7.3317057E-3,1.2523658E-2,-1.150617E-2,-4.7330353E-3],"split_indices":[0,1,4,0,4,0,0,0,2,0,0,0,0],"split_type":[0,0,0,0,0,0,0,0,0,0,0,0,0],"sum_hessian":[3.9318433E2,2.8927713E2,1.0390718E2,2.376879E1,2.6550833E2,1.1487073E1,9.242011E1,2.0450644E1,2.450577E2,4.9448982E1,4.297113E1,3.2042885E1,2.1301482E2],"tree_param":{"num_deleted":"0","num_feature":"5","num_nodes":"13","size_leaf_vector":"1"}},{"base_weights":[-2.6398016E-2,-3.8704562E-1,9.3587554E-1,5.023685E-3,-4.5944366E-1,3.1549865E-1,1.094961E-2,-8.8228065E-1,-2.1299732E-1,5.727357E-3,-0E0,-1.0125794E-2,-2.0679997E-4,2.2245587E-3,-4.4174166E-3],"categories":[],"categories_nodes":[],"categories_segments":[],"categories_sizes":[],"default_left":[0,0,0,0,0,0,0,0,0,0,0,0,0,0,0],"id":10,"left_children":[1,3,5,-1,7,9,-1,11,13,-1,-1,-1,-1,-1,-1],"loss_changes":[1.3903261E2,1.9298996E1,8.64695E0,0E0,2.7000546E1,2.3866446E0,0E0,9.980392E0,1.8021086E1,0E0,0E0,0E0,0E0,0E0,0E0],"parents":[2147483647,0,0,1,1,2,2,4,4,5,5,7,7,8,8],"right_children":[2,4,6,-1,8,10,-1,12,14,-1,-1,-1,-1,-1,-1],"split_conditions":[5.875E-1,3.722E3,2.072E3,5.023685E-3,4.478E3,4.709E3,1.094961E-2,1.315E3,1.251E3,5.727357E-3,-0E0,-1.0125794E-2,-2.0679997E-4,2.2245587E-3,-4.4174166E-3],"split_indices":[0,1,2,0,1,1,0,2,2,0,0,0,0,0,0],"split_type":[0,0,0,0,0,0,0,0,0,0,0,0,0,0,0],"sum_hessian":[3.981162E2,2.9120947E2,1.0690675E2,1.9986284E1,2.7122318E2,2.431994E1,8.2586815E1,9.647676E1,1.7474641E2,1.3262545E1,1.1057396E1,8.2490715E1,1.39860525E1,5.8694637E1,1.1605178E2],"tree_param":{"num_deleted":"0","num_feature":"5","num_nodes":"15","size_leaf_vector":"1"}},{"base_weights":[-7.8287795E-2,-3.6150792E-1,1.1680794E0,-7.394183E-1,-1.6183645E-1,5.049346E-1,1.4876784E-2,-6.67737E-2,-9.2189944E-1,-2.9589793E-1,2.8707096E-1,-0E0,7.7151656E-3,-3.4210503E-3,1.2944507E-3,-1.2278689E-2,-3.8867746E-3,1.5494028E-3,-5.2560335E-3,9.136971E-3,3.0925366E-4],"categories":[],"categories_nodes":[],"categories_segments":[],"categories_sizes":[],"default_left":[0,0,0,0,0,0,0,0,0,0,0,0,0,0,0,0,0,0,0,0,0],"id":11,"left_children":[1,3,5,7,9,11,-1,13,15,17,19,-1,-1,-1,-1,-1,-1,-1,-1,-1,-1],"loss_changes":[1.4426175E2,2.4145378E1,1.2500229E1,1.2826279E1,1.3632033E1,3.4469857E0,0E0,1.7900248E0,1.1785431E1,1.8639915E1,7.137781E0,0E0,0E0,0E0,0E0,0E0,0E0,0E0,0E0,0E0,0E0],"parents":[2147483647,0,0,1,1,2,2,3,3,4,4,5,5,7,7,8,8,9,9,10,10],"right_children":[2,4,6,8,10,12,-1,14,16,18,20,-1,-1,-1,-1,-1,-1,-1,-1,-1,-1],"split_conditions":[2.427E3,4.443E3,6.7391306E-1,3.747E3,5.714286E-1,2.733E3,1.4876784E-2,3.1E1,4.7777778E-1,1.193E3,4.724E3,-0E0,7.7151656E-3,-3.4210503E-3,1.2944507E-3,-1.2278689E-2,-3.8867746E-3,1.5494028E-3,-5.2560335E-3,9.136971E-3,3.0925366E-4],"split_indices":[2,1,0,1,0,2,0,4,0,2,1,0,0,0,0,0,0,0,0,0,0],"split_type":[0,0,0,0,0,0,0,0,0,0,0,0,0,0,0,0,0,0,0,0,0],"sum_hessian":[4.0657028E2,3.3310004E2,7.347025E1,1.1155315E2,2.2154689E2,2.6588911E1,4.688134E1,2.555747E1,8.5995674E1,1.7283951E2,4.870738E1,1.0552448E1,1.6036463E1,1.2136744E1,1.3420727E1,5.1794487E1,3.4201187E1,5.7089214E1,1.1575029E2,1.1510424E1,3.7196957E1],"tree_param":{"num_deleted":"0","num_feature":"5","num_nodes":"21","size_leaf_vector":"1"}},{"base_weights":[-9.366644E-3,-3.5142237E-1,1.0021747E0,4.6977872E-1,-4.210965E-1,7.9531705E-1,1.2649325E0,6.231502E-4,6.9617024E-3,-5.059247E-1,2.9172418E-1,1.0666659E-2,5.652772E-1,1.496955E-2,5.959669E-3,-7.5836712E-3,-3.6315464E-3,-0E0,6.043428E-3,2.233293E-3,1.1740209E-2],"categories":[],"categories_nodes":[],"categories_segments":[],"categories_sizes":[],"default_left":[0,0,0,0,0,0,0,0,0,0,0,0,0,0,0,0,0,0,0,0,0],"id":12,"left_children":[1,3,5,7,9,11,13,-1,-1,15,17,-1,19,-1,-1,-1,-1,-1,-1,-1,-1],"loss_changes":[1.4162123E2,1.7968342E1,1.5355225E0,1.360302E0,1.7807133E1,1.2347183E0,2.3204842E0,0E0,0E0,7.6129837E0,2.4649134E0,0E0,6.729104E0,0E0,0E0,0E0,0E0,0E0,0E0,0E0,0E0],"parents":[2147483647,0,0,1,1,2,2,3,3,4,4,5,5,6,6,9,9,10,10,12,12],"right_children":[2,4,6,8,10,12,14,-1,-1,16,18,-1,20,-1,-1,-1,-1,-1,-1,-1,-1],"split_conditions":[6.0465115E-1,3.783784E-1,6.888889E-1,4.121E3,9.3E1,5.039E3,6.068E3,6.231502E-4,6.9617024E-3,4.372E3,2.297E3,1.0666659E-2,9.8E1,1.496955E-2,5.959669E-3,-7.5836712E-3,-3.6315464E-3,-0E0,6.043428E-3,2.233293E-3,1.1740209E-2],"split_indices":[0,0,0,1,3,1,1,0,0,1,2,0,3,0,0,0,0,0,0,0,0],"split_type":[0,0,0,0,0,0,0,0,0,0,0,0,0,0,0,0,0,0,0,0,0],"sum_hessian":[4.0715076E2,3.0597736E2,1.0117339E2,2.1909355E1,2.8406802E2,6.3243767E1,3.792963E1,1.0313879E1,1.1595477E1,2.5563046E2,2.8437546E1,2.3684885E1,3.955888E1,2.5214138E1,1.2715491E1,8.670064E1,1.6892982E2,1.6596304E1,1.1841242E1,2.8132532E1,1.1426347E1],"tree_param":{"num_deleted":"0","num_feature":"5","num_nodes":"21","size_leaf_vector":"1"}},{"base_weights":[1.5945112E-3,-2.950874E-1,9.7629076E-1,6.69849E-3,-3.8895968E-1,5.954618E-1,1.1011247E-2,3.864267E-1,-4.6254757E-1,1.1232851E-2,1.5971757E-4,-1.3449143E-4,8.416174E-3,-5.5993227E-3,2.2424688E-3],"categories":[],"categories_nodes":[],"categories_segments":[],"categories_sizes":[],"default_left":[0,0,0,0,0,0,0,0,0,0,0,0,0,0,0],"id":13,"left_children":[1,3,5,-1,7,9,-1,11,13,-1,-1,-1,-1,-1,-1],"loss_changes":[1.1939139E2,2.8677147E1,1.5835571E0,0E0,1.6884666E1,8.054721E0,0E0,5.3835797E0,1.833855E1,0E0,0E0,0E0,0E0,0E0,0E0],"parents":[2147483647,0,0,1,1,2,2,4,4,5,5,7,7,8,8],"right_children":[2,4,6,-1,8,10,-1,12,14,-1,-1,-1,-1,-1,-1],"split_conditions":[6.0465115E-1,3.747E3,6.375E-1,6.69849E-3,3.9506173E-1,6.125E-1,1.1011247E-2,4.529E3,5E1,1.1232851E-2,1.5971757E-4,-1.3449143E-4,8.416174E-3,-5.5993227E-3,2.2424688E-3],"split_indices":[0,1,0,0,0,0,0,1,4,0,0,0,0,0,0],"split_type":[0,0,0,0,0,0,0,0,0,0,0,0,0,0,0],"sum_hessian":[4.0652118E2,3.1194016E2,9.458104E1,2.562368E1,2.8631647E2,2.8175919E1,6.640512E1,2.2902643E1,2.6341382E2,1.2860021E1,1.5315897E1,1.205585E1,1.0846793E1,2.3230008E2,3.1113745E1],"tree_param":{"num_deleted":"0","num_feature":"5","num_nodes":"15","size_leaf_vector":"1"}},{"base_weights":[-5.32815E-2,-4.0039167E-1,1.0053678E0,-0E0,-4.731429E-1,3.6650174E-5,1.1560996E0,-6.538965E-3,2.2799912E-1,-7.509443E-1,-2.9639184E-1,8.2868296E-1,1.3572702E-2,-0E0,4.48433E-3,-9.805946E-3,-1.285353E-3,7.721665E-4,-5.7367575E-3,1.1720947E-2,3.660212E-3],"categories":[],"categories_nodes":[],"categories_segments":[],"categories_sizes":[],"default_left":[0,0,0,0,0,0,0,0,0,0,0,0,0,0,0,0,0,0,0,0,0],"id":14,"left_children":[1,3,5,7,9,-1,11,-1,13,15,17,19,-1,-1,-1,-1,-1,-1,-1,-1,-1],"loss_changes":[1.4565643E2,9.010063E0,1.3567879E1,7.0647655E0,1.1040863E1,0E0,1.0945969E0,0E0,2.024747E0,1.2324963E1,1.7316048E1,3.797186E0,0E0,0E0,0E0,0E0,0E0,0E0,0E0,0E0,0E0],"parents":[2147483647,0,0,1,1,2,2,3,3,4,4,6,6,8,8,9,9,10,10,11,11],"right_children":[2,4,6,8,10,-1,12,-1,14,16,18,20,-1,-1,-1,-1,-1,-1,-1,-1,-1],"split_conditions":[6.0465115E-1,8.23E2,2.083E3,6.14E2,4.593E3,3.6650174E-5,6.7391306E-1,-6.538965E-3,4.0697673E-1,1.255E3,8.5E1,6.333333E-1,1.3572702E-2,-0E0,4.48433E-3,-9.805946E-3,-1.285353E-3,7.721665E-4,-5.7367575E-3,1.1720947E-2,3.660212E-3],"split_indices":[0,2,2,2,1,0,0,0,0,2,3,0,0,0,0,0,0,0,0,0,0],"split_type":[0,0,0,0,0,0,0,0,0,0,0,0,0,0,0,0,0,0,0,0,0],"sum_hessian":[3.9383405E2,2.9823642E2,9.559763E1,4.4983433E1,2.5325298E2,1.363929E1,8.195834E1,1.0029995E1,3.4953438E1,9.37501E1,1.5950288E2,3.6980324E1,4.4978024E1,1.7331987E1,1.7621452E1,6.6467834E1,2.7282265E1,6.7027534E1,9.247534E1,1.8224785E1,1.8755539E1],"tree_param":{"num_deleted":"0","num_feature":"5","num_nodes":"21","size_leaf_vector":"1"}},{"base_weights":[7.4882177E-3,-3.6788598E-1,9.279391E-1,-4.6518221E-1,4.6509363E-2,4.2670146E-1,1.1495736E-2,2.4532947E-1,-5.411651E-1,7.583361E-3,-2.4188319E-1,-0E0,5.942695E-1,5.266606E-3,-1.2359003E-4,-5.967421E-3,2.2258868E-3,1.7609106E-3,-5.0601736E-3,9.027794E-3,-0E0],"categories":[],"categories_nodes":[],"categories_segments":[],"categories_sizes":[],"default_left":[0,0,0,0,0,0,0,0,0,0,0,0,0,0,0,0,0,0,0,0,0],"id":15,"left_children":[1,3,5,7,9,11,-1,13,15,-1,17,-1,19,-1,-1,-1,-1,-1,-1,-1,-1],"loss_changes":[1.4227432E2,1.2178619E1,1.0727089E1,1.3382046E1,1.2198681E1,3.1474743E0,0E0,2.1981568E0,9.826691E0,0E0,4.8959208E0,0E0,5.338578E0,0E0,0E0,0E0,0E0,0E0,0E0,0E0,0E0],"parents":[2147483647,0,0,1,1,2,2,3,3,4,4,5,5,7,7,8,8,10,10,12,12],"right_children":[2,4,6,8,10,12,-1,14,16,-1,18,-1,20,-1,-1,-1,-1,-1,-1,-1,-1],"split_conditions":[5.903614E-1,5.377E3,6.296296E-1,7.3E1,4.7368422E-1,5.1E1,1.1495736E-2,3.1E1,5.731707E-1,7.583361E-3,1.689E3,-0E0,2.269E3,5.266606E-3,-1.2359003E-4,-5.967421E-3,2.2258868E-3,1.7609106E-3,-5.0601736E-3,9.027794E-3,-0E0],"split_indices":[0,1,0,3,0,4,0,4,0,0,2,0,2,0,0,0,0,0,0,0,0],"split_type":[0,0,0,0,0,0,0,0,0,0,0,0,0,0,0,0,0,0,0,0,0],"sum_hessian":[4.0617944E2,2.8859863E2,1.17580795E2,2.3547849E2,5.312015E1,3.9227726E1,7.835307E1,2.1047373E1,2.1443112E2,1.5376196E1,3.7743958E1,1.1059845E1,2.8167881E1,1.0919308E1,1.0128064E1,2.0151398E2,1.2917139E1,1.3407774E1,2.4336182E1,1.7622509E1,1.0545372E1],"tree_param":{"num_deleted":"0","num_feature":"5","num_nodes":"21","size_leaf_vector":"1"}},{"base_weights":[-0E0,-3.1069094E-1,8.925317E-1,-3.592461E-1,3.388275E-3,6.43529E-1,1.0704796E-2,8.9700244E-2,-4.177578E-1,9.739644E-3,6.737732E-4,4.5376825E-3,-3.3667944E-3,-1.0919781E-2,-3.234719E-3],"categories":[],"categories_nodes":[],"categories_segments":[],"categories_sizes":[],"default_left":[0,0,0,0,0,0,0,0,0,0,0,0,0,0,0],"id":16,"left_children":[1,3,5,7,-1,9,-1,11,13,-1,-1,-1,-1,-1,-1],"loss_changes":[1.12083496E2,9.684731E0,1.5387039E0,7.7672844E0,0E0,8.520149E0,0E0,5.390141E0,1.3792377E1,0E0,0E0,0E0,0E0,0E0,0E0],"parents":[2147483647,0,0,1,1,2,2,3,3,5,5,7,7,8,8],"right_children":[2,4,6,8,-1,10,-1,12,14,-1,-1,-1,-1,-1,-1],"split_conditions":[6E-1,9.5E1,5.9E1,7.4E1,3.388275E-3,5.4E1,1.0704796E-2,4.375E-1,4.121E3,9.739644E-3,6.737732E-4,4.5376825E-3,-3.3667944E-3,-1.0919781E-2,-3.234719E-3],"split_indices":[0,3,4,3,0,4,0,0,1,0,0,0,0,0,0],"split_type":[0,0,0,0,0,0,0,0,0,0,0,0,0,0,0],"sum_hessian":[3.9922275E2,2.9671976E2,1.02503E2,2.7834528E2,1.8374468E1,4.891233E1,5.3590668E1,3.0000671E1,2.483446E2,2.9103985E1,1.9808344E1,1.7378632E1,1.262204E1,2.657104E1,2.2177357E2],"tree_param":{"num_deleted":"0","num_feature":"5","num_nodes":"15","size_leaf_vector":"1"}},{"base_weights":[-5.3418204E-2,-4.8208496E-1,6.462087E-1,3.9240303E-3,-5.857661E-1,3.603048E-1,1.0569441E0,3.122351E-3,-6.76985E-1,4.7846478E-1,-0E0,1.1815468E0,4.7494415E-3,-7.625798E-3,6.4804906E-4,3.200471E-3,9.122736E-3,-5.375478E-3,5.3519253E-3,4.549039E-3,1.34599E-2],"categories":[],"categories_nodes":[],"categories_segments":[],"categories_sizes":[],"default_left":[0,0,0,0,0,0,0,0,0,0,0,0,0,0,0,0,0,0,0,0,0],"id":17,"left_children":[1,3,5,-1,7,9,11,-1,13,15,17,19,-1,-1,-1,-1,-1,-1,-1,-1,-1],"loss_changes":[1.1880943E2,2.3023422E1,1.54235E1,0E0,1.9005432E1,3.8757753E0,1.5032501E0,0E0,1.3719742E1,2.965599E0,7.843843E0,2.4563065E0,0E0,0E0,0E0,0E0,0E0,0E0,0E0,0E0,0E0],"parents":[2147483647,0,0,1,1,2,2,4,4,5,5,6,6,8,8,9,9,10,10,11,11],"right_children":[2,4,6,-1,8,10,12,-1,14,16,18,20,-1,-1,-1,-1,-1,-1,-1,-1,-1],"split_conditions":[5.5421686E-1,7.3E1,6.458333E-1,3.9240303E-3,3.9506173E-1,5.772E3,6.262E3,3.122351E-3,9.2E1,2.131E3,2.696E3,2.427E3,4.7494415E-3,-7.625798E-3,6.4804906E-4,3.200471E-3,9.122736E-3,-5.375478E-3,5.3519253E-3,4.549039E-3,1.34599E-2],"split_indices":[0,3,0,0,0,1,1,0,3,2,2,2,0,0,0,0,0,0,0,0,0],"split_type":[0,0,0,0,0,0,0,0,0,0,0,0,0,0,0,0,0,0,0,0,0],"sum_hessian":[3.9262424E2,2.4472845E2,1.4789578E2,2.4327364E1,2.204011E2,9.084775E1,5.704803E1,1.8866095E1,2.01535E2,6.7581665E1,2.3266083E1,4.3875946E1,1.3172084E1,1.8184412E2,1.9690884E1,5.3738285E1,1.3843384E1,1.145292E1,1.1813164E1,1.0609296E1,3.326665E1],"tree_param":{"num_deleted":"0","num_feature":"5","num_nodes":"21","size_leaf_vector":"1"}},{"base_weights":[-2.1915667E-2,-4.2097414E-1,9.331262E-1,-4.7923443E-1,1.901919E-1,1.1969641E-2,4.5909777E-1,-2.519902E-1,-7.13278E-1,5.214613E-3,-1.5044863E-3,-0E0,8.81791E-3,-5.5334917E-3,4.2093745E-3,-1.9995063E-3,-8.101515E-3,-4.990383E-3,4.3631434E-3],"categories":[],"categories_nodes":[],"categories_segments":[],"categories_sizes":[],"default_left":[0,0,0,0,0,0,0,0,0,0,0,0,0,0,0,0,0,0,0],"id":18,"left_children":[1,3,5,7,9,-1,11,13,15,-1,-1,17,-1,-1,-1,-1,-1,-1,-1],"loss_changes":[1.5455965E2,1.0713207E1,1.2151207E1,1.275161E1,3.3457654E0,0E0,1.0019632E1,2.8896927E1,4.9874573E0,0E0,0E0,5.6202226E0,0E0,0E0,0E0,0E0,0E0,0E0,0E0],"parents":[2147483647,0,0,1,1,2,2,3,3,4,4,6,6,7,7,8,8,11,11],"right_children":[2,4,6,8,10,-1,12,14,16,-1,-1,18,-1,-1,-1,-1,-1,-1,-1],"split_conditions":[5.1E1,5.729167E-1,5.779E3,4.7435898E-1,5.890411E-1,1.1969641E-2,6.512E3,4.831E3,4.246E3,5.214613E-3,-1.5044863E-3,2.696E3,8.81791E-3,-5.5334917E-3,4.2093745E-3,-1.9995063E-3,-8.101515E-3,-4.990383E-3,4.3631434E-3],"split_indices":[4,0,1,0,0,0,1,1,1,0,0,2,0,0,0,0,0,0,0],"split_type":[0,0,0,0,0,0,0,0,0,0,0,0,0,0,0,0,0,0,0],"sum_hessian":[4.0282562E2,2.8563873E2,1.1718692E2,2.626675E2,2.2971209E1,7.196976E1,4.521716E1,1.3754472E2,1.2512278E2,1.2595859E1,1.037535E1,2.1532007E1,2.3685152E1,9.627229E1,4.1272434E1,2.2475769E1,1.0264701E2,1.0948726E1,1.05832815E1],"tree_param":{"num_deleted":"0","num_feature":"5","num_nodes":"19","size_leaf_vector":"1"}},{"base_weights":[-3.0432254E-2,-3.83522E-1,9.4040406E-1,3.0109644E-1,-4.43205E-1,6.1941755E-1,1.2436011E0,-0E0,5.0516883E-3,-6.3122123E-1,-6.958512E-2,3.9537832E-1,9.932361E-3,1.465726E-2,6.980332E-3,-6.862167E-3,-0E0,8.981035E-3,-3.0864915E-3,6.130776E-3,-0E0],"categories":[],"categories_nodes":[],"categories_segments":[],"categories_sizes":[],"default_left":[0,0,0,0,0,0,0,0,0,0,0,0,0,0,0,0,0,0,0,0,0],"id":19,"left_children":[1,3,5,7,9,11,13,-1,-1,15,17,19,-1,-1,-1,-1,-1,-1,-1,-1,-1],"loss_changes":[1.3984698E2,1.2707264E1,7.155792E0,1.1863179E0,1.8810318E1,2.7078114E0,2.1169205E0,0E0,0E0,5.93029E0,2.250403E1,3.791751E0,0E0,0E0,0E0,0E0,0E0,0E0,0E0,0E0,0E0],"parents":[2147483647,0,0,1,1,2,2,3,3,4,4,5,5,6,6,9,9,10,10,11,11],"right_children":[2,4,6,8,10,12,14,-1,-1,16,18,20,-1,-1,-1,-1,-1,-1,-1,-1,-1],"split_conditions":[5.903614E-1,3.722E3,6.533333E-1,3.1E1,5.122E3,2.522E3,5.853E3,-0E0,5.0516883E-3,1.575E3,4.512195E-1,6.1445785E-1,9.932361E-3,1.465726E-2,6.980332E-3,-6.862167E-3,-0E0,8.981035E-3,-3.0864915E-3,6.130776E-3,-0E0],"split_indices":[0,1,0,4,1,2,1,0,0,2,0,0,0,0,0,0,0,0,0,0,0],"split_type":[0,0,0,0,0,0,0,0,0,0,0,0,0,0,0,0,0,0,0,0,0],"sum_hessian":[4.0548444E2,2.989847E2,1.06499725E2,2.1982328E1,2.7700238E2,5.6290535E1,5.020919E1,1.0813866E1,1.1168463E1,1.8157378E2,9.54286E1,3.9442223E1,1.6848314E1,3.1981802E1,1.8227386E1,1.6592226E2,1.5651517E1,1.6983982E1,7.844462E1,2.5324142E1,1.4118079E1],"tree_param":{"num_deleted":"0","num_feature":"5","num_nodes":"21","size_leaf_vector":"1"}},{"base_weights":[4.572289E-2,-2.673706E-1,9.360088E-1,1.5653071E-1,-4.2824903E-1,6.6511345E-1,1.1012516E0,-1.891668E-1,4.2446947E-1,-5.6466186E-1,-4.3544453E-2,8.197842E-3,1.2482152E-3,1.382704E-2,7.529395E-1,4.5931996E-3,-6.9123306E-3,6.5131783E-3,-0E0,-6.313052E-3,-0E0,1.8974266E-3,-3.3931434E-3,9.700684E-3,1.3826774E-3],"categories":[],"categories_nodes":[],"categories_segments":[],"categories_sizes":[],"default_left":[0,0,0,0,0,0,0,0,0,0,0,0,0,0,0,0,0,0,0,0,0,0,0,0,0],"id":20,"left_children":[1,3,5,7,9,11,13,15,17,19,21,-1,-1,-1,23,-1,-1,-1,-1,-1,-1,-1,-1,-1,-1],"loss_changes":[1.1658385E2,2.134562E1,1.6480942E0,8.197507E0,1.11410675E1,2.9156075E0,1.8956909E0,1.2760759E1,4.880481E0,6.25375E0,4.6210265E0,0E0,0E0,0E0,3.1410713E0,0E0,0E0,0E0,0E0,0E0,0E0,0E0,0E0,0E0,0E0],"parents":[2147483647,0,0,1,1,2,2,3,3,4,4,5,5,6,6,7,7,8,8,9,9,10,10,14,14],"right_children":[2,4,6,8,10,12,14,16,18,20,22,-1,-1,-1,24,-1,-1,-1,-1,-1,-1,-1,-1,-1,-1],"split_conditions":[5.9574467E-1,4.375E-1,2.475E3,4.198E3,5.368421E-1,5.243E3,5.994E3,7.3E1,3.5E1,9.2E1,1.763E3,8.197842E-3,1.2482152E-3,1.382704E-2,6.956522E-1,4.5931996E-3,-6.9123306E-3,6.5131783E-3,-0E0,-6.313052E-3,-0E0,1.8974266E-3,-3.3931434E-3,9.700684E-3,1.3826774E-3],"split_indices":[0,0,2,1,0,1,1,3,4,3,2,0,0,0,0,0,0,0,0,0,0,0,0,0,0],"split_type":[0,0,0,0,0,0,0,0,0,0,0,0,0,0,0,0,0,0,0,0,0,0,0,0,0],"sum_hessian":[4.120545E2,3.0505106E2,1.07003456E2,8.222725E1,2.228238E2,4.664179E1,6.036167E1,3.45309E1,4.769635E1,1.6188564E2,6.093817E1,3.4017933E1,1.2623854E1,2.8512112E1,3.184956E1,1.4273391E1,2.0257507E1,3.0611977E1,1.7084373E1,1.4480241E2,1.7083225E1,3.257821E1,2.835996E1,2.1478981E1,1.0370579E1],"tree_param":{"num_deleted":"0","num_feature":"5","num_nodes":"25","size_leaf_vector":"1"}},{"base_weights":[2.5282323E-2,-3.6953783E-1,9.26369E-1,7.513444E-2,-5.0788575E-1,3.5962936E-1,1.0289777E-2,-9.922004E-2,8.33577E-3,-5.7144E-1,3.5529046E-3,6.1613107E-3,-0E0,4.1276966E-3,-3.4606024E-3,-8.912388E-3,-4.620067E-3],"categories":[],"categories_nodes":[],"categories_segments":[],"categories_sizes":[],"default_left":[0,0,0,0,0,0,0,0,0,0,0,0,0,0,0,0,0],"id":21,"left_children":[1,3,5,7,9,11,-1,13,-1,15,-1,-1,-1,-1,-1,-1,-1],"loss_changes":[1.5061148E2,1.8509415E1,5.3879395E0,1.0084833E1,1.2972889E1,1.9999619E0,0E0,7.4467487E0,0E0,5.2265396E0,0E0,0E0,0E0,0E0,0E0,0E0,0E0],"parents":[2147483647,0,0,1,1,2,2,3,3,4,4,5,5,7,7,9,9],"right_children":[2,4,6,8,10,12,-1,14,-1,16,-1,-1,-1,-1,-1,-1,-1],"split_conditions":[5.7608694E-1,3.4E1,5.1E1,4.542E3,6.17E3,7.8E1,1.0289777E-2,7.3E1,8.33577E-3,4.372E3,3.5529046E-3,6.1613107E-3,-0E0,4.1276966E-3,-3.4606024E-3,-8.912388E-3,-4.620067E-3],"split_indices":[0,4,4,1,1,3,0,3,0,1,0,0,0,0,0,0,0],"split_type":[0,0,0,0,0,0,0,0,0,0,0,0,0,0,0,0,0],"sum_hessian":[4.1785324E2,2.9059583E2,1.2725745E2,6.745863E1,2.2313718E2,2.2383274E1,1.0487417E2,5.519094E1,1.2267695E1,2.0954332E2,1.3593855E1,1.1575588E1,1.0807686E1,1.6197945E1,3.8992996E1,4.7450787E1,1.6209253E2],"tree_param":{"num_deleted":"0","num_feature":"5","num_nodes":"17","size_leaf_vector":"1"}},{"base_weights":[1.6962368E-2,-3.168507E-1,8.7026346E-1,3.0334517E-1,-5.0160676E-1,4.1719797E-1,1.2830598E-2,-0E0,7.711728E-1,3.3831703E-3,-5.4988277E-1,7.2630674E-1,1.6463464E-1,4.737778E-3,-1.6691542E-3,2.6004082E-3,1.1585526E-2,-1.3379399E-2,-4.4903643E-3,1.8061342E-3,1.0558912E-2,4.7914744E-3,-1.8103437E-3],"categories":[],"categories_nodes":[],"categories_segments":[],"categories_sizes":[],"default_left":[0,0,0,0,0,0,0,0,0,0,0,0,0,0,0,0,0,0,0,0,0,0,0],"id":22,"left_children":[1,3,5,7,9,11,-1,13,15,-1,17,19,21,-1,-1,-1,-1,-1,-1,-1,-1,-1,-1],"loss_changes":[1.169586E2,3.4073814E1,1.887661E1,8.935444E0,9.817707E0,3.4994717E0,0E0,3.8655088E0,3.0141573E0,0E0,1.4276169E1,2.7522383E0,4.4943438E0,0E0,0E0,0E0,0E0,0E0,0E0,0E0,0E0,0E0,0E0],"parents":[2147483647,0,0,1,1,2,2,3,3,4,4,5,5,7,7,8,8,10,10,11,11,12,12],"right_children":[2,4,6,8,10,12,-1,14,16,-1,18,20,22,-1,-1,-1,-1,-1,-1,-1,-1,-1,-1],"split_conditions":[5.862069E-1,4.2857143E-1,6E1,4.492E3,3.699E3,4.701E3,1.2830598E-2,3.722E3,9.69E2,3.3831703E-3,3.6E1,4.452E3,6.1728394E-1,4.737778E-3,-1.6691542E-3,2.6004082E-3,1.1585526E-2,-1.3379399E-2,-4.4903643E-3,1.8061342E-3,1.0558912E-2,4.7914744E-3,-1.8103437E-3],"split_indices":[0,0,4,1,1,1,0,1,2,0,4,1,0,0,0,0,0,0,0,0,0,0,0],"split_type":[0,0,0,0,0,0,0,0,0,0,0,0,0,0,0,0,0,0,0,0,0,0,0],"sum_hessian":[4.047282E2,2.909812E2,1.1374699E2,6.525031E1,2.257309E2,5.7300518E1,5.6446465E1,4.1819824E1,2.343049E1,1.0490108E1,2.152408E2,2.229864E1,3.500188E1,1.1168221E1,3.0651602E1,1.2655749E1,1.0774741E1,2.0510735E1,1.9473006E2,1.0704808E1,1.1593831E1,1.9437233E1,1.5564646E1],"tree_param":{"num_deleted":"0","num_feature":"5","num_nodes":"23","size_leaf_vector":"1"}},{"base_weights":[-3.0434395E-3,-3.236782E-1,7.895689E-1,4.8201224E-1,-4.008454E-1,-0E0,9.248159E-1,7.4607334E-3,2.8921757E-4,-5.9822154E-1,-1.4016485E-1,1.0578221E-2,4.917068E-3,-2.3978052E-3,-8.162015E-3,6.087663E-3,-4.562885E-3],"categories":[],"categories_nodes":[],"categories_segments":[],"categories_sizes":[],"default_left":[0,0,0,0,0,0,0,0,0,0,0,0,0,0,0,0,0],"id":23,"left_children":[1,3,5,7,9,-1,11,-1,-1,13,15,-1,-1,-1,-1,-1,-1],"loss_changes":[1.0353319E2,1.8474857E1,1.1943199E1,2.211132E0,1.2930611E1,0E0,3.1259613E0,0E0,0E0,1.0292061E1,2.897325E1,0E0,0E0,0E0,0E0,0E0,0E0],"parents":[2147483647,0,0,1,1,2,2,3,3,4,4,6,6,9,9,10,10],"right_children":[2,4,6,8,10,-1,12,-1,-1,14,16,-1,-1,-1,-1,-1,-1],"split_conditions":[5.8441556E-1,7.3E1,5.1E1,4.3589744E-1,4.836E3,-0E0,6.127E3,7.4607334E-3,2.8921757E-4,7.8E1,1.251E3,1.0578221E-2,4.917068E-3,-2.3978052E-3,-8.162015E-3,6.087663E-3,-4.562885E-3],"split_indices":[0,3,4,0,1,0,1,0,0,3,2,0,0,0,0,0,0],"split_type":[0,0,0,0,0,0,0,0,0,0,0,0,0,0,0,0,0],"sum_hessian":[4.052099E2,2.9024307E2,1.1496685E2,2.3319227E1,2.6692383E2,1.7745394E1,9.722146E1,1.2521418E1,1.0797811E1,1.4824973E2,1.1867411E2,7.040627E1,2.6815186E1,5.9385418E1,8.88643E1,3.3735737E1,8.493838E1],"tree_param":{"num_deleted":"0","num_feature":"5","num_nodes":"17","size_leaf_vector":"1"}},{"base_weights":[9.920861E-3,-2.9509076E-1,9.297099E-1,5.402002E-3,-3.3708587E-1,4.9190176E-1,1.2217054E-2,-3.9330313E-1,1.7953852E-1,8.271623E-3,1.8460646E-1,1.7152664E-3,-4.356843E-3,5.699531E-3,-1.2610493E-3,3.6051301E-3,-0E0],"categories":[],"categories_nodes":[],"categories_segments":[],"categories_sizes":[],"default_left":[0,0,0,0,0,0,0,0,0,0,0,0,0,0,0,0,0],"id":24,"left_children":[1,3,5,-1,7,9,-1,11,13,-1,15,-1,-1,-1,-1,-1,-1],"loss_changes":[1.157015E2,1.0938679E1,1.024559E1,0E0,8.920101E0,3.4125948E0,0E0,6.8371887E0,3.996686E0,0E0,1.1129906E0,0E0,0E0,0E0,0E0,0E0,0E0],"parents":[2147483647,0,0,1,1,2,2,4,4,5,5,7,7,8,8,10,10],"right_children":[2,4,6,-1,8,10,-1,12,14,-1,16,-1,-1,-1,-1,-1,-1],"split_conditions":[6E-1,3.6231884E-1,6.533333E-1,5.402002E-3,5.731707E-1,6.125E-1,1.2217054E-2,3.679E3,4.9E1,8.271623E-3,5.377E3,1.7152664E-3,-4.356843E-3,5.699531E-3,-1.2610493E-3,3.6051301E-3,-0E0],"split_indices":[0,0,0,0,0,0,0,1,4,0,1,0,0,0,0,0,0],"split_type":[0,0,0,0,0,0,0,0,0,0,0,0,0,0,0,0,0],"sum_hessian":[4.0619708E2,3.052456E2,1.0095148E2,1.2336245E1,2.9290936E2,4.390931E1,5.7042164E1,2.663402E2,2.6569149E1,1.7824736E1,2.6084572E1,1.6517357E1,2.4982285E2,1.2343893E1,1.4225255E1,1.3927567E1,1.2157005E1],"tree_param":{"num_deleted":"0","num_feature":"5","num_nodes":"17","size_leaf_vector":"1"}},{"base_weights":[4.1361224E-2,-2.8603715E-1,8.7596726E-1,3.216532E-1,-3.82123E-1,4.689174E-1,1.1130725E-2,8.458016E-2,7.001033E-3,-2.6384655E-1,-7.237123E-1,9.545792E-3,-2.024874E-3,-1.2771578E-3,2.7978048E-3,-4.4301213E-3,1.0142918E-3,-9.900739E-3,1.664337E-3],"categories":[],"categories_nodes":[],"categories_segments":[],"categories_sizes":[],"default_left":[0,0,0,0,0,0,0,0,0,0,0,0,0,0,0,0,0,0,0],"id":25,"left_children":[1,3,5,7,9,11,-1,13,-1,15,17,-1,-1,-1,-1,-1,-1,-1,-1],"loss_changes":[1.138149E2,1.7645163E1,8.722702E0,2.7042627E0,9.084156E0,1.6884838E1,0E0,1.4095652E0,0E0,1.3357779E1,1.6143978E1,0E0,0E0,0E0,0E0,0E0,0E0,0E0,0E0],"parents":[2147483647,0,0,1,1,2,2,3,3,4,4,5,5,7,7,9,9,10,10],"right_children":[2,4,6,8,10,12,-1,14,-1,16,18,-1,-1,-1,-1,-1,-1,-1,-1],"split_conditions":[5.1E1,3.2E1,2.451E3,4.198E3,8.6E1,5.243E3,1.1130725E-2,6.14E2,7.001033E-3,1.373E3,9.3E1,9.545792E-3,-2.024874E-3,-1.2771578E-3,2.7978048E-3,-4.4301213E-3,1.0142918E-3,-9.900739E-3,1.664337E-3],"split_indices":[4,4,2,1,3,1,0,2,0,2,3,0,0,0,0,0,0,0,0],"split_type":[0,0,0,0,0,0,0,0,0,0,0,0,0,0,0,0,0,0,0],"sum_hessian":[4.1053217E2,2.9494705E2,1.1558513E2,3.8206894E1,2.5674014E2,4.6289913E1,6.929521E1,2.6620386E1,1.1586507E1,1.9551482E2,6.1225346E1,2.7235182E1,1.905473E1,1.0628999E1,1.5991388E1,1.3272566E2,6.2789143E1,4.7816067E1,1.3409282E1],"tree_param":{"num_deleted":"0","num_feature":"5","num_nodes":"19","size_leaf_vector":"1"}},{"base_weights":[-4.188956E-2,-3.830941E-1,6.814498E-1,-8.500777E-4,-5.242964E-1,4.1875127E-1,9.8047173E-1,-2.0582162E-1,9.010512E-3,-6.358819E-1,-1.90829E-1,1.1475052E-1,6.0115653E-1,1.1396259E-2,2.166209E-3,1.9390235E-4,-8.38022E-3,-4.0653334E-3,-1.5617433E-2,6.8039354E-3,-5.2906973E-3,6.062095E-3,-2.3490782E-3,7.055693E-4,8.025961E-3],"categories":[],"categories_nodes":[],"categories_segments":[],"categories_sizes":[],"default_left":[0,0,0,0,0,0,0,0,0,0,0,0,0,0,0,0,0,0,0,0,0,0,0,0,0],"id":26,"left_children":[1,3,5,7,9,11,13,15,-1,17,19,21,23,-1,-1,-1,-1,-1,-1,-1,-1,-1,-1,-1,-1],"loss_changes":[9.816202E1,1.4146893E1,7.7533455E0,1.3955958E1,6.246319E0,3.186349E0,4.971054E0,1.0173291E1,0E0,2.7383667E1,1.6598877E1,6.129459E0,3.610633E0,0E0,0E0,0E0,0E0,0E0,0E0,0E0,0E0,0E0,0E0,0E0,0E0],"parents":[2147483647,0,0,1,1,2,2,3,3,4,4,5,5,6,6,7,7,9,9,10,10,11,11,12,12],"right_children":[2,4,6,8,10,12,14,16,-1,18,20,22,24,-1,-1,-1,-1,-1,-1,-1,-1,-1,-1,-1,-1],"split_conditions":[5.731707E-1,4.375E-1,6.533333E-1,5.048E3,5.272E3,8.6E1,6.262E3,8.1E1,9.010512E-3,8.5E1,4.7368422E-1,4.518E3,6.0465115E-1,1.1396259E-2,2.166209E-3,1.9390235E-4,-8.38022E-3,-4.0653334E-3,-1.5617433E-2,6.8039354E-3,-5.2906973E-3,6.062095E-3,-2.3490782E-3,7.055693E-4,8.025961E-3],"split_indices":[0,0,0,1,1,3,1,3,0,3,0,1,0,0,0,0,0,0,0,0,0,0,0,0,0],"split_type":[0,0,0,0,0,0,0,0,0,0,0,0,0,0,0,0,0,0,0,0,0,0,0,0,0],"sum_hessian":[3.9482175E2,2.698532E2,1.2496853E2,7.524743E1,1.9460577E2,7.0860664E1,5.410787E1,6.347424E1,1.1773188E1,1.4220749E2,5.2398293E1,2.9850922E1,4.100974E1,4.2880363E1,1.1227506E1,4.7064945E1,1.6409294E1,1.1714686E2,2.5060627E1,1.3261195E1,3.9137096E1,1.2988106E1,1.6862816E1,1.3394065E1,2.7615675E1],"tree_param":{"num_deleted":"0","num_feature":"5","num_nodes":"25","size_leaf_vector":"1"}},{"base_weights":[6.370909E-2,-2.5643852E-1,9.663043E-1,2.9804295E-1,-3.418859E-1,1.258227E-2,5.087771E-1,-0E0,4.883545E-3,-9.6554214E-1,-2.2648558E-1,-2.0295647E-3,7.821306E-1,-1.4715727E-2,-2.999123E-3,-3.5285219E-3,3.879157E-3,4.144728E-3,1.0918402E-2],"categories":[],"categories_nodes":[],"categories_segments":[],"categories_sizes":[],"default_left":[0,0,0,0,0,0,0,0,0,0,0,0,0,0,0,0,0,0,0],"id":27,"left_children":[1,3,5,7,9,-1,11,-1,-1,13,15,-1,17,-1,-1,-1,-1,-1,-1],"loss_changes":[1.2588036E2,1.5373434E1,1.2206085E1,2.3498676E0,1.8458687E1,0E0,1.0464155E1,0E0,0E0,1.136359E1,1.8833422E1,0E0,1.7968597E0,0E0,0E0,0E0,0E0,0E0,0E0],"parents":[2147483647,0,0,1,1,2,2,3,3,4,4,6,6,9,9,10,10,12,12],"right_children":[2,4,6,8,10,-1,12,-1,-1,14,16,-1,18,-1,-1,-1,-1,-1,-1],"split_conditions":[2.083E3,3.2E1,5.853E3,3.853E3,4.141E3,1.258227E-2,9.5E1,-0E0,4.883545E-3,4.8E-1,5.714286E-1,-2.0295647E-3,6.888889E-1,-1.4715727E-2,-2.999123E-3,-3.5285219E-3,3.879157E-3,4.144728E-3,1.0918402E-2],"split_indices":[2,4,1,1,1,0,3,0,0,0,0,0,0,0,0,0,0,0,0],"split_type":[0,0,0,0,0,0,0,0,0,0,0,0,0,0,0,0,0,0,0],"sum_hessian":[4.2945526E2,3.1725116E2,1.122041E2,4.0134285E1,2.7711685E2,6.502772E1,4.717638E1,1.6587566E1,2.354672E1,3.9616844E1,2.3750002E2,1.2218841E1,3.495754E1,2.0277435E1,1.933941E1,1.9904132E2,3.8458702E1,1.959801E1,1.535953E1],"tree_param":{"num_deleted":"0","num_feature":"5","num_nodes":"19","size_leaf_vector":"1"}},{"base_weights":[7.578755E-2,-2.088135E-1,7.9162943E-1,6.485277E-1,-2.7787754E-1,9.097977E-1,2.5829884E-1,1.1142731E-3,9.941775E-3,5.1567648E-3,-3.3654344E-1,2.7635053E-1,1.1147156E-2,-5.525038E-4,5.4155486E-3,-9.237851E-3,-2.4763737E-3,6.2650815E-3,-1.7800418E-3],"categories":[],"categories_nodes":[],"categories_segments":[],"categories_sizes":[],"default_left":[0,0,0,0,0,0,0,0,0,0,0,0,0,0,0,0,0,0,0],"id":28,"left_children":[1,3,5,7,9,11,13,-1,-1,-1,15,17,-1,-1,-1,-1,-1,-1,-1],"loss_changes":[8.71501E1,1.7957947E1,6.040123E0,2.7837343E0,1.3357542E1,1.0636696E1,2.8931408E0,0E0,0E0,0E0,1.2268915E1,5.0722604E0,0E0,0E0,0E0,0E0,0E0,0E0,0E0],"parents":[2147483647,0,0,1,1,2,2,3,3,4,4,5,5,6,6,10,10,11,11],"right_children":[2,4,6,8,10,12,14,-1,-1,-1,16,18,-1,-1,-1,-1,-1,-1,-1],"split_conditions":[5.862069E-1,3.783784E-1,6.068E3,4.198E3,3.722E3,2.083E3,6.79E3,1.1142731E-3,9.941775E-3,5.1567648E-3,4.121E3,4.66E3,1.1147156E-2,-5.525038E-4,5.4155486E-3,-9.237851E-3,-2.4763737E-3,6.2650815E-3,-1.7800418E-3],"split_indices":[0,0,1,1,1,2,1,0,0,0,1,1,0,0,0,0,0,0,0],"split_type":[0,0,0,0,0,0,0,0,0,0,0,0,0,0,0,0,0,0,0],"sum_hessian":[4.2129037E2,3.0145782E2,1.1983255E2,2.014342E1,2.8131442E2,9.5406815E1,2.4425737E1,1.005576E1,1.0087659E1,1.7119455E1,2.6419495E2,2.5660788E1,6.9746025E1,1.0681455E1,1.3744283E1,3.0790272E1,2.3340468E2,1.5307152E1,1.0353635E1],"tree_param":{"num_deleted":"0","num_feature":"5","num_nodes":"19","size_leaf_vector":"1"}},{"base_weights":[8.045985E-3,-3.0995578E-1,8.087923E-1,3.151776E-3,-3.702403E-1,5.640819E-1,1.0667398E-2,-5.1447487E-1,-1.7381633E-2,7.730886E-4,6.808894E-1,-3.6767079E-3,-1.390777E-2,7.8465035E-3,-2.1478622E-3,7.934449E-3,1.286181E-3],"categories":[],"categories_nodes":[],"categories_segments":[],"categories_sizes":[],"default_left":[0,0,0,0,0,0,0,0,0,0,0,0,0,0,0,0,0],"id":29,"left_children":[1,3,5,-1,7,9,-1,11,13,-1,15,-1,-1,-1,-1,-1,-1],"loss_changes":[1.0507298E2,1.1333618E1,4.590317E0,0E0,1.3175785E1,2.9229584E0,0E0,2.1578186E1,1.2802505E1,0E0,2.093361E0,0E0,0E0,0E0,0E0,0E0,0E0],"parents":[2147483647,0,0,1,1,2,2,4,4,5,5,7,7,8,8,10,10],"right_children":[2,4,6,-1,8,10,-1,12,14,-1,16,-1,-1,-1,-1,-1,-1],"split_conditions":[5.8441556E-1,3.747E3,6.533333E-1,3.151776E-3,5.122E3,8.2E1,1.0667398E-2,8.5E1,4.5333335E-1,7.730886E-4,6.127E3,-3.6767079E-3,-1.390777E-2,7.8465035E-3,-2.1478622E-3,7.934449E-3,1.286181E-3],"split_indices":[0,1,0,0,1,3,0,3,0,0,1,0,0,0,0,0,0],"split_type":[0,0,0,0,0,0,0,0,0,0,0,0,0,0,0,0,0],"sum_hessian":[4.067075E2,2.910853E2,1.156222E2,2.3399082E1,2.6768622E2,6.4593666E1,5.1028538E1,1.8735352E2,8.033268E1,1.4800444E1,4.9793217E1,1.6387961E2,2.3473917E1,1.3691263E1,6.664142E1,3.913353E1,1.0659689E1],"tree_param":{"num_deleted":"0","num_feature":"5","num_nodes":"17","size_leaf_vector":"1"}},{"base_weights":[-2.7621005E-2,-3.6398056E-1,8.667466E-1,-4.549671E-1,-8.32598E-2,1.0155679E0,4.8021254E-1,-3.6346105E-1,-9.280442E-1,-2.7358076E-1,3.8489148E-3,4.665052E-1,1.2431486E-2,-3.3877508E-3,8.966918E-3,-6.7858975E-3,-2.1029497E-3,-3.1630113E-3,-1.1443884E-2,6.2222575E-4,-6.226577E-3,7.544199E-3,-0E0],"categories":[],"categories_nodes":[],"categories_segments":[],"categories_sizes":[],"default_left":[0,0,0,0,0,0,0,0,0,0,0,0,0,0,0,0,0,0,0,0,0,0,0],"id":30,"left_children":[1,3,5,7,9,11,13,15,17,19,-1,21,-1,-1,-1,-1,-1,-1,-1,-1,-1,-1,-1],"loss_changes":[1.20533875E2,6.871788E0,3.808609E0,7.479679E0,6.949062E0,6.5219345E0,1.3447751E1,7.8948116E0,2.0910587E0,7.3600326E0,0E0,2.836361E0,0E0,0E0,0E0,0E0,0E0,0E0,0E0,0E0,0E0,0E0,0E0],"parents":[2147483647,0,0,1,1,2,2,3,3,4,4,5,5,6,6,7,7,8,8,9,9,11,11],"right_children":[2,4,6,8,10,12,14,16,18,20,-1,22,-1,-1,-1,-1,-1,-1,-1,-1,-1,-1,-1],"split_conditions":[6E-1,5.182E3,5.758E3,8.5E1,5.609756E-1,2.093E3,3E3,4.141E3,1.2E3,1.611E3,3.8489148E-3,1.852E3,1.2431486E-2,-3.3877508E-3,8.966918E-3,-6.7858975E-3,-2.1029497E-3,-3.1630113E-3,-1.1443884E-2,6.2222575E-4,-6.226577E-3,7.544199E-3,-0E0],"split_indices":[0,1,1,3,0,2,2,1,2,2,0,2,0,0,0,0,0,0,0,0,0,0,0],"split_type":[0,0,0,0,0,0,0,0,0,0,0,0,0,0,0,0,0,0,0,0,0,0,0],"sum_hessian":[3.9824612E2,2.910793E2,1.07166824E2,2.1620107E2,7.487824E1,7.315806E1,3.400877E1,1.858944E2,3.0306662E1,5.5345516E1,1.9532726E1,2.451258E1,4.8645477E1,1.07808275E1,2.3227942E1,5.6421444E1,1.2947296E2,1.0411899E1,1.9894762E1,2.758665E1,2.7758865E1,1.3121193E1,1.1391387E1],"tree_param":{"num_deleted":"0","num_feature":"5","num_nodes":"23","size_leaf_vector":"1"}},{"base_weights":[7.3863454E-2,-2.5198025E-1,8.6306226E-1,2.5444067E-1,-3.551613E-1,9.807159E-1,4.204543E-1,-1.947161E-2,6.325046E-1,-1.0560495E-2,-3.0287665E-1,2.3227814E-3,1.0728099E0,-2.1162258E-4,7.5012622E-3,-4.1411007E-3,1.9672432E-3,8.8099325E-3,1.8412638E-3,3.2364143E-4,-3.9138137E-3,8.207208E-3,1.3372869E-2],"categories":[],"categories_nodes":[],"categories_segments":[],"categories_sizes":[],"default_left":[0,0,0,0,0,0,0,0,0,0,0,0,0,0,0,0,0,0,0,0,0,0,0],"id":31,"left_children":[1,3,5,7,9,11,13,15,17,-1,19,-1,21,-1,-1,-1,-1,-1,-1,-1,-1,-1,-1],"loss_changes":[1.0926183E2,1.5878782E1,4.248169E0,5.820469E0,7.179201E0,4.7397003E0,5.331215E0,2.891098E0,1.1307106E0,0E0,7.4219837E0,0E0,1.1663895E0,0E0,0E0,0E0,0E0,0E0,0E0,0E0,0E0,0E0,0E0],"parents":[2147483647,0,0,1,1,2,2,3,3,4,4,5,5,6,6,7,7,8,8,10,10,12,12],"right_children":[2,4,6,8,10,12,14,16,18,-1,20,-1,22,-1,-1,-1,-1,-1,-1,-1,-1,-1,-1],"split_conditions":[5.903614E-1,8.23E2,5.994E3,4.0789473E-1,8.99E2,6.0674155E-1,9.8E1,3.876E3,7.42E2,-1.0560495E-2,4.5333335E-1,2.3227814E-3,6.7948717E-1,-2.1162258E-4,7.5012622E-3,-4.1411007E-3,1.9672432E-3,8.8099325E-3,1.8412638E-3,3.2364143E-4,-3.9138137E-3,8.207208E-3,1.3372869E-2],"split_indices":[0,2,1,0,2,0,3,1,2,0,0,0,0,0,0,0,0,0,0,0,0,0,0],"split_type":[0,0,0,0,0,0,0,0,0,0,0,0,0,0,0,0,0,0,0,0,0,0,0],"sum_hessian":[4.188186E2,2.9649594E2,1.2232266E2,4.804816E1,2.484478E2,9.29294E1,2.9393269E1,2.7428087E1,2.0620073E1,1.32539015E1,2.351939E2,1.2143498E1,8.07859E1,1.2067022E1,1.7326246E1,1.0696864E1,1.6731222E1,1.05907755E1,1.0029298E1,4.702834E1,1.8816556E2,4.749905E1,3.3286846E1],"tree_param":{"num_deleted":"0","num_feature":"5","num_nodes":"23","size_leaf_vector":"1"}},{"base_weights":[3.6338273E-2,-2.7676332E-1,7.6520175E-1,4.5690304E-1,-3.5430178E-1,8.753741E-1,2.7851126E-1,8.9449185E-4,6.6208085E-3,-7.8533494E-1,-2.7836013E-1,6.5595494E-3,1.3700383E-2,-1.260731E-3,7.155245E-3,-1.0550632E-2,-8.9535356E-4,-1.1884251E-3,-5.515783E-3],"categories":[],"categories_nodes":[],"categories_segments":[],"categories_sizes":[],"default_left":[0,0,0,0,0,0,0,0,0,0,0,0,0,0,0,0,0,0,0],"id":32,"left_children":[1,3,5,7,9,11,13,-1,-1,15,17,-1,-1,-1,-1,-1,-1,-1,-1],"loss_changes":[9.4129845E1,1.6504732E1,5.019951E0,1.1657252E0,7.050396E0,6.8887863E0,5.6392946E0,0E0,0E0,5.43441E0,9.099667E0,0E0,0E0,0E0,0E0,0E0,0E0,0E0,0E0],"parents":[2147483647,0,0,1,1,2,2,3,3,4,4,5,5,6,6,9,9,10,10],"right_children":[2,4,6,8,10,12,14,-1,-1,16,18,-1,-1,-1,-1,-1,-1,-1,-1],"split_conditions":[5.8441556E-1,3.747E3,6.068E3,3.1E1,4.121E3,6.956522E-1,9.8E1,8.9449185E-4,6.6208085E-3,4.6753246E-1,8.6E1,6.5595494E-3,1.3700383E-2,-1.260731E-3,7.155245E-3,-1.0550632E-2,-8.9535356E-4,-1.1884251E-3,-5.515783E-3],"split_indices":[0,1,1,4,1,0,3,0,0,0,3,0,0,0,0,0,0,0,0],"split_type":[0,0,0,0,0,0,0,0,0,0,0,0,0,0,0,0,0,0,0],"sum_hessian":[4.0647702E2,2.8424222E2,1.222348E2,2.5001057E1,2.5924115E2,9.669416E1,2.5540644E1,1.1733399E1,1.3267658E1,3.406168E1,2.2517947E2,7.160562E1,2.5088541E1,1.2813107E1,1.2727536E1,2.2766382E1,1.12953E1,1.4629538E2,7.888409E1],"tree_param":{"num_deleted":"0","num_feature":"5","num_nodes":"19","size_leaf_vector":"1"}},{"base_weights":[2.430897E-2,-2.9614756E-1,8.1226957E-1,1.0518742E-1,-4.384312E-1,4.8484015E-1,9.8385245E-1,-2.1859828E-1,7.461881E-3,4.246859E-3,-4.961652E-1,6.6563273E-3,3.4242377E-5,1.124736E0,5.33488E-3,3.106572E-4,-8.5112965E-3,-6.807948E-3,-1.8019889E-3,6.016272E-3,1.3656605E-2],"categories":[],"categories_nodes":[],"categories_segments":[],"categories_sizes":[],"default_left":[0,0,0,0,0,0,0,0,0,0,0,0,0,0,0,0,0,0,0,0,0],"id":33,"left_children":[1,3,5,7,9,11,13,15,-1,-1,17,-1,-1,19,-1,-1,-1,-1,-1,-1,-1],"loss_changes":[1.0464446E2,1.7120428E1,4.325157E0,1.6688618E1,1.1359524E1,3.438511E0,1.8916779E0,8.958547E0,0E0,0E0,1.0934624E1,0E0,0E0,3.1356735E0,0E0,0E0,0E0,0E0,0E0,0E0,0E0],"parents":[2147483647,0,0,1,1,2,2,3,3,4,4,5,5,6,6,7,7,10,10,13,13],"right_children":[2,4,6,8,10,12,14,16,-1,-1,18,-1,-1,20,-1,-1,-1,-1,-1,-1,-1],"split_conditions":[5.862069E-1,4.3589744E-1,6.296296E-1,4.554E3,3.722E3,6.125E-1,5.994E3,7.8E1,7.461881E-3,4.246859E-3,5.066E3,6.6563273E-3,3.4242377E-5,6.7391306E-1,5.33488E-3,3.106572E-4,-8.5112965E-3,-6.807948E-3,-1.8019889E-3,6.016272E-3,1.3656605E-2],"split_indices":[0,0,0,1,1,0,1,3,0,0,1,0,0,0,0,0,0,0,0,0,0],"split_type":[0,0,0,0,0,0,0,0,0,0,0,0,0,0,0,0,0,0,0,0,0],"sum_hessian":[4.0847253E2,2.903635E2,1.1810902E2,7.4295044E1,2.1606847E2,4.5246037E1,7.286298E1,4.9200504E1,2.5094538E1,1.1663765E1,2.044047E2,3.082674E1,1.4419295E1,5.1528557E1,2.1334429E1,3.550664E1,1.3693863E1,1.2556102E2,7.884368E1,1.9763012E1,3.1765543E1],"tree_param":{"num_deleted":"0","num_feature":"5","num_nodes":"21","size_leaf_vector":"1"}},{"base_weights":[5.02154E-2,-2.5114396E-1,7.9103374E-1,-3.5939384E-1,2.7532622E-1,1.4488454E-1,9.123462E-1,6.4072125E-2,-5.1522017E-1,7.5471085E-3,-0E0,3.9357077E-3,-4.7334997E-4,6.884115E-1,1.1400591E0,5.8360514E-3,-9.487032E-4,-1.336938E-2,-3.7920382E-3,-4.102947E-3,6.1910967E-3,1.0557374E-2,4.3629585E-3,1.3111168E-2,4.6822205E-3],"categories":[],"categories_nodes":[],"categories_segments":[],"categories_sizes":[],"default_left":[0,0,0,0,0,0,0,0,0,0,0,0,0,0,0,0,0,0,0,0,0,0,0,0,0],"id":34,"left_children":[1,3,5,7,9,11,13,15,17,-1,19,-1,-1,21,23,-1,-1,-1,-1,-1,-1,-1,-1,-1,-1],"loss_changes":[9.1018166E1,1.6659653E1,7.9371033E0,1.640742E1,6.203793E0,1.4519386E0,1.5872116E0,5.952747E0,1.7162178E1,0E0,9.001823E0,0E0,0E0,2.8241558E0,1.9588509E0,0E0,0E0,0E0,0E0,0E0,0E0,0E0,0E0,0E0,0E0],"parents":[2147483647,0,0,1,1,2,2,3,3,4,4,5,5,6,6,7,7,8,8,10,10,13,13,14,14],"right_children":[2,4,6,8,10,12,14,16,18,-1,20,-1,-1,22,24,-1,-1,-1,-1,-1,-1,-1,-1,-1,-1],"split_conditions":[5.1E1,5.377E3,5.952381E-1,4.3589744E-1,4.7368422E-1,5.794E3,6.7391306E-1,7.4E1,4.556962E-1,7.5471085E-3,5.294118E-1,3.9357077E-3,-4.7334997E-4,5.175E3,6.068E3,5.8360514E-3,-9.487032E-4,-1.336938E-2,-3.7920382E-3,-4.102947E-3,6.1910967E-3,1.0557374E-2,4.3629585E-3,1.3111168E-2,4.6822205E-3],"split_indices":[4,1,0,0,0,1,0,3,0,0,0,0,0,1,1,0,0,0,0,0,0,0,0,0,0],"split_type":[0,0,0,0,0,0,0,0,0,0,0,0,0,0,0,0,0,0,0,0,0,0,0,0,0],"sum_hessian":[4.0149347E2,2.8537656E2,1.1611693E2,2.3880827E2,4.6568283E1,2.035127E1,9.5765656E1,6.2828606E1,1.7597968E2,1.53554945E1,3.1212788E1,1.0227149E1,1.0124121E1,5.4554314E1,4.1211346E1,1.4940563E1,4.7888042E1,2.144047E1,1.545392E2,1.8911934E1,1.2300854E1,1.799484E1,3.655947E1,3.0144627E1,1.1066716E1],"tree_param":{"num_deleted":"0","num_feature":"5","num_nodes":"25","size_leaf_vector":"1"}},{"base_weights":[-1.55612165E-2,-3.3008528E-1,8.110096E-1,3.4966995E-3,-3.847421E-1,1.6666041E-3,8.869409E-3,-5.621923E-1,-1.1200043E-1,-7.2059813E-3,-9.912307E-4,4.393518E-3,-4.1427766E-3],"categories":[],"categories_nodes":[],"categories_segments":[],"categories_sizes":[],"default_left":[0,0,0,0,0,0,0,0,0,0,0,0,0],"id":35,"left_children":[1,3,5,-1,7,-1,-1,9,11,-1,-1,-1,-1],"loss_changes":[1.06938774E2,1.1454102E1,4.180588E0,0E0,1.2755505E1,0E0,0E0,1.1284935E1,1.9524866E1,0E0,0E0,0E0,0E0],"parents":[2147483647,0,0,1,1,2,2,4,4,7,7,8,8],"right_children":[2,4,6,-1,8,-1,-1,10,12,-1,-1,-1,-1],"split_conditions":[6E-1,7.3E1,5.1E1,3.4966995E-3,4.934E3,1.6666041E-3,8.869409E-3,5.064935E-1,1.491E3,-7.2059813E-3,-9.912307E-4,4.393518E-3,-4.1427766E-3],"split_indices":[0,3,4,0,1,0,0,0,2,0,0,0,0],"split_type":[0,0,0,0,0,0,0,0,0,0,0,0,0],"sum_hessian":[4.0913077E2,2.9810712E2,1.11023636E2,2.0020866E1,2.7808624E2,1.3765962E1,9.7257675E1,1.6496703E2,1.13119225E2,1.2048125E2,4.4485783E1,3.8563824E1,7.45554E1],"tree_param":{"num_deleted":"0","num_feature":"5","num_nodes":"13","size_leaf_vector":"1"}},{"base_weights":[-2.7143491E-2,-2.481189E-1,8.0489826E-1,9.917219E-2,-3.6386523E-1,1.0105869E-2,3.364694E-1,-4.5349505E-2,8.748701E-3,-5.7241184E-1,-5.7403184E-2,-8.641888E-4,7.6742056E-3,1.8640972E-3,-6.9361124E-3,-4.15407E-3,-1.4460752E-2,-2.615727E-3,1.6773617E-3],"categories":[],"categories_nodes":[],"categories_segments":[],"categories_sizes":[],"default_left":[0,0,0,0,0,0,0,0,0,0,0,0,0,0,0,0,0,0,0],"id":36,"left_children":[1,3,5,7,9,-1,11,13,-1,15,17,-1,-1,-1,-1,-1,-1,-1,-1],"loss_changes":[7.437083E1,1.3311333E1,6.122635E0,9.887891E0,1.4941868E1,0E0,6.333877E0,1.1031794E1,0E0,1.6611362E1,4.9272575E0,0E0,0E0,0E0,0E0,0E0,0E0,0E0,0E0],"parents":[2147483647,0,0,1,1,2,2,3,3,4,4,6,6,7,7,9,9,10,10],"right_children":[2,4,6,8,10,-1,12,14,-1,16,18,-1,-1,-1,-1,-1,-1,-1,-1],"split_conditions":[6.1904764E-1,4.3589744E-1,5.853E3,5.095E3,5.243902E-1,1.0105869E-2,6.7E1,8.1E1,8.748701E-3,1.515E3,1.898E3,-8.641888E-4,7.6742056E-3,1.8640972E-3,-6.9361124E-3,-4.15407E-3,-1.4460752E-2,-2.615727E-3,1.6773617E-3],"split_indices":[0,0,1,1,0,0,4,3,0,2,2,0,0,0,0,0,0,0,0],"split_type":[0,0,0,0,0,0,0,0,0,0,0,0,0,0,0,0,0,0,0],"sum_hessian":[4.0335123E2,3.2076678E2,8.2584465E1,7.8094604E1,2.4267216E2,5.4294144E1,2.8290325E1,6.633038E1,1.1764221E1,1.4143045E2,1.0124171E2,1.3914576E1,1.4375749E1,4.877515E1,1.7555235E1,1.2335759E2,1.8072863E1,5.525305E1,4.5988655E1],"tree_param":{"num_deleted":"0","num_feature":"5","num_nodes":"19","size_leaf_vector":"1"}},{"base_weights":[-2.1046415E-2,-3.02811E-1,7.925628E-1,2.2043777E-1,-3.723625E-1,2.3275004E-3,9.004012E-3,-0E0,6.243095E-3,-6.009002E-1,-5.7331387E-2,2.8615515E-3,-3.443681E-3,-4.3913783E-3,-1.0528883E-2,5.4005575E-3,-2.1001908E-3],"categories":[],"categories_nodes":[],"categories_segments":[],"categories_sizes":[],"default_left":[0,0,0,0,0,0,0,0,0,0,0,0,0,0,0,0,0],"id":37,"left_children":[1,3,5,7,9,-1,-1,11,-1,13,15,-1,-1,-1,-1,-1,-1],"loss_changes":[9.3657326E1,1.1446651E1,4.770874E0,3.2958567E0,1.888417E1,0E0,0E0,2.6319962E0,0E0,8.975769E0,1.071248E1,0E0,0E0,0E0,0E0,0E0,0E0],"parents":[2147483647,0,0,1,1,2,2,3,3,4,4,7,7,9,9,10,10],"right_children":[2,4,6,8,10,-1,-1,12,-1,14,16,-1,-1,-1,-1,-1,-1],"split_conditions":[6E-1,7.4E1,6.1616164E-1,4.8E-1,4.934E3,2.3275004E-3,9.004012E-3,6.78E2,6.243095E-3,4.649E3,1.251E3,2.8615515E-3,-3.443681E-3,-4.3913783E-3,-1.0528883E-2,5.4005575E-3,-2.1001908E-3],"split_indices":[0,3,0,0,1,0,0,2,0,1,2,0,0,0,0,0,0],"split_type":[0,0,0,0,0,0,0,0,0,0,0,0,0,0,0,0,0],"sum_hessian":[4.0658716E2,3.0384573E2,1.0274143E2,3.345334E1,2.703924E2,1.9112747E1,8.3628685E1,2.2577198E1,1.087614E1,1.5381728E2,1.1657512E2,1.2161092E1,1.0416106E1,1.1780982E2,3.6007458E1,2.1364336E1,9.5210785E1],"tree_param":{"num_deleted":"0","num_feature":"5","num_nodes":"17","size_leaf_vector":"1"}},{"base_weights":[1.8706929E-2,-1.9447891E-1,7.120735E-1,1.7689016E-1,-3.3385834E-1,3.6608586E-1,9.0600634E-1,-9.405239E-2,6.2670213E-1,-5.357891E-1,-4.645903E-2,7.5719347E-3,-0E0,1.2827979E-2,5.680788E-1,6.423197E-3,-5.0662975E-3,8.3975345E-3,2.3502107E-3,-2.8169565E-3,-7.7080945E-3,-4.450978E-3,3.0943344E-4,1.5710038E-3,9.345353E-3],"categories":[],"categories_nodes":[],"categories_segments":[],"categories_sizes":[],"default_left":[0,0,0,0,0,0,0,0,0,0,0,0,0,0,0,0,0,0,0,0,0,0,0,0,0],"id":38,"left_children":[1,3,5,7,9,11,13,15,17,19,21,-1,-1,-1,23,-1,-1,-1,-1,-1,-1,-1,-1,-1,-1],"loss_changes":[6.1691673E1,1.660914E1,4.6679497E0,1.1066418E1,1.2837875E1,6.479993E0,4.31308E0,1.682641E1,1.3490496E0,6.520504E0,3.5276906E0,0E0,0E0,0E0,4.118536E0,0E0,0E0,0E0,0E0,0E0,0E0,0E0,0E0,0E0,0E0],"parents":[2147483647,0,0,1,1,2,2,3,3,4,4,5,5,6,6,7,7,8,8,9,9,10,10,14,14],"right_children":[2,4,6,8,10,12,14,16,18,20,22,-1,-1,-1,24,-1,-1,-1,-1,-1,-1,-1,-1,-1,-1],"split_conditions":[6E-1,4.3589744E-1,2.475E3,4.558E3,5.176471E-1,4.805E3,5.758E3,7.4E1,1.004E3,1.193E3,7.9E1,7.5719347E-3,-0E0,1.2827979E-2,3.474E3,6.423197E-3,-5.0662975E-3,8.3975345E-3,2.3502107E-3,-2.8169565E-3,-7.7080945E-3,-4.450978E-3,3.0943344E-4,1.5710038E-3,9.345353E-3],"split_indices":[0,0,2,1,0,1,1,3,2,2,3,0,0,0,2,0,0,0,0,0,0,0,0,0,0],"split_type":[0,0,0,0,0,0,0,0,0,0,0,0,0,0,0,0,0,0,0,0,0,0,0,0,0],"sum_hessian":[4.099793E2,3.1356567E2,9.641363E1,8.346492E1,2.3010077E2,3.8557163E1,5.7856464E1,5.1688942E1,3.1775976E1,1.3208676E2,9.8014E1,1.8782389E1,1.9774773E1,2.3312025E1,3.454444E1,1.7290754E1,3.4398186E1,1.7445574E1,1.4330402E1,6.762539E1,6.446137E1,1.6492537E1,8.152147E1,1.8916243E1,1.56282E1],"tree_param":{"num_deleted":"0","num_feature":"5","num_nodes":"25","size_leaf_vector":"1"}},{"base_weights":[-1.082528E-2,-3.2982633E-1,6.825789E-1,9.349023E-2,-3.8853204E-1,4.084669E-1,1.07576E-2,3.9687604E-3,-2.0065631E-3,-6.093836E-1,-1.8630737E-1,8.329551E-3,2.2566153E-1,-2.4808012E-3,-8.199182E-3,8.8693586E-4,-5.1706694E-3,-9.0561144E-4,3.2708747E-3],"categories":[],"categories_nodes":[],"categories_segments":[],"categories_sizes":[],"default_left":[0,0,0,0,0,0,0,0,0,0,0,0,0,0,0,0,0,0,0],"id":39,"left_children":[1,3,5,7,9,11,-1,-1,-1,13,15,-1,17,-1,-1,-1,-1,-1,-1],"loss_changes":[8.5890724E1,7.0273952E0,1.0772148E1,3.226822E0,9.598167E0,4.5043917E0,0E0,0E0,0E0,6.924877E0,1.2288738E1,0E0,2.1523519E0,0E0,0E0,0E0,0E0,0E0,0E0],"parents":[2147483647,0,0,1,1,2,2,3,3,4,4,5,5,9,9,10,10,12,12],"right_children":[2,4,6,8,10,12,-1,-1,-1,14,16,-1,18,-1,-1,-1,-1,-1,-1],"split_conditions":[5.7608694E-1,7.4E1,6.7391306E-1,4.375E-1,4.724E3,5.952381E-1,1.07576E-2,3.9687604E-3,-2.0065631E-3,7.8E1,1.515E3,8.329551E-3,6.0674155E-1,-2.4808012E-3,-8.199182E-3,8.8693586E-4,-5.1706694E-3,-9.0561144E-4,3.2708747E-3],"split_indices":[0,3,0,0,1,0,0,0,0,3,2,0,0,0,0,0,0,0,0],"split_type":[0,0,0,0,0,0,0,0,0,0,0,0,0,0,0,0,0,0,0],"sum_hessian":[3.8585947E2,2.6598413E2,1.1987533E2,3.0175415E1,2.3580872E2,7.453397E1,4.5341354E1,1.6184118E1,1.3991297E1,1.0842496E2,1.2738376E2,1.8648169E1,5.5885803E1,4.327176E1,6.515319E1,6.870294E1,5.868082E1,1.1229539E1,4.465626E1],"tree_param":{"num_deleted":"0","num_feature":"5","num_nodes":"19","size_leaf_vector":"1"}},{"base_weights":[2.262747E-2,-2.859943E-1,6.902067E-1,2.0605722E-1,-3.5153717E-1,4.5086578E-1,9.8381233E-1,4.0177912E-3,-0E0,-1.0169566E0,-2.5767738E-1,8.414177E-1,1.1017209E-1,2.7908229E-3,1.1109944E-2,-3.8176302E-3,-1.317483E-2,2.7895092E-3,-3.3557874E-3,3.60414E-3,1.22462185E-2,-1.6809731E-3,6.762161E-3],"categories":[],"categories_nodes":[],"categories_segments":[],"categories_sizes":[],"default_left":[0,0,0,0,0,0,0,0,0,0,0,0,0,0,0,0,0,0,0,0,0,0,0],"id":40,"left_children":[1,3,5,7,9,11,13,-1,-1,15,17,19,21,-1,-1,-1,-1,-1,-1,-1,-1,-1,-1],"loss_changes":[8.495751E1,9.3117485E0,6.8661537E0,1.5626688E0,1.3776625E1,9.1882515E0,2.9328156E0,0E0,0E0,2.7986145E0,9.547295E0,3.8886395E0,7.841476E0,0E0,0E0,0E0,0E0,0E0,0E0,0E0,0E0,0E0,0E0],"parents":[2147483647,0,0,1,1,2,2,3,3,4,4,5,5,6,6,9,9,10,10,11,11,12,12],"right_children":[2,4,6,8,10,12,14,-1,-1,16,18,20,22,-1,-1,-1,-1,-1,-1,-1,-1,-1,-1],"split_conditions":[5.729167E-1,7.4E1,6.533333E-1,3.747E3,4.121E3,5.066E3,2.327E3,4.0177912E-3,-0E0,7.62E2,4.246E3,8.2E1,9.5E1,2.7908229E-3,1.1109944E-2,-3.8176302E-3,-1.317483E-2,2.7895092E-3,-3.3557874E-3,3.60414E-3,1.22462185E-2,-1.6809731E-3,6.762161E-3],"split_indices":[0,3,0,1,1,1,2,0,0,2,1,3,3,0,0,0,0,0,0,0,0,0,0],"split_type":[0,0,0,0,0,0,0,0,0,0,0,0,0,0,0,0,0,0,0,0,0,0,0],"sum_hessian":[4.06478E2,2.777291E2,1.2874887E2,3.034847E1,2.4738063E2,7.559921E1,5.3149662E1,1.618891E1,1.4159561E1,2.6831898E1,2.2054874E2,3.248529E1,4.311392E1,1.0304231E1,4.2845432E1,1.1144652E1,1.5687245E1,2.567647E1,1.9487227E2,1.7282576E1,1.5202717E1,2.866266E1,1.4451259E1],"tree_param":{"num_deleted":"0","num_feature":"5","num_nodes":"23","size_leaf_vector":"1"}},{"base_weights":[4.226739E-3,-3.1891063E-1,6.8796563E-1,3.7748805E-1,-4.0406206E-1,3.666616E-1,1.0932926E-2,6.647159E-3,-0E0,5.345249E-2,-4.5433584E-1,5.265619E-1,-1.2434907E-3,-4.374449E-3,6.872577E-3,-7.909983E-3,-2.9779864E-3,1.9026002E-3,8.945868E-3],"categories":[],"categories_nodes":[],"categories_segments":[],"categories_sizes":[],"default_left":[0,0,0,0,0,0,0,0,0,0,0,0,0,0,0,0,0,0,0],"id":41,"left_children":[1,3,5,7,9,11,-1,-1,-1,13,15,17,-1,-1,-1,-1,-1,-1,-1],"loss_changes":[8.9136566E1,1.6452393E1,1.4659412E1,2.966473E0,6.0727463E0,6.5678263E0,0E0,0E0,0E0,8.326071E0,1.0163525E1,5.9882812E0,0E0,0E0,0E0,0E0,0E0,0E0,0E0],"parents":[2147483647,0,0,1,1,2,2,3,3,4,4,5,5,9,9,10,10,11,11],"right_children":[2,4,6,8,10,12,-1,-1,-1,14,16,18,-1,-1,-1,-1,-1,-1,-1],"split_conditions":[5.731707E-1,7.22E2,5.9E1,7.4E1,4.1666666E-1,8.9E1,1.0932926E-2,6.647159E-3,-0E0,4.635E3,4.6341464E-1,2.072E3,-1.2434907E-3,-4.374449E-3,6.872577E-3,-7.909983E-3,-2.9779864E-3,1.9026002E-3,8.945868E-3],"split_indices":[0,2,4,3,0,3,0,0,0,1,0,2,0,0,0,0,0,0,0],"split_type":[0,0,0,0,0,0,0,0,0,0,0,0,0,0,0,0,0,0,0],"sum_hessian":[3.9778314E2,2.6985388E2,1.2792927E2,2.737352E1,2.4248036E2,7.486216E1,5.306711E1,1.4186859E1,1.3186661E1,2.2025015E1,2.2045534E2,5.789888E1,1.696328E1,1.18718405E1,1.0153174E1,6.5370155E1,1.5508519E2,3.3258427E1,2.4640455E1],"tree_param":{"num_deleted":"0","num_feature":"5","num_nodes":"19","size_leaf_vector":"1"}},{"base_weights":[1.9115485E-2,-2.4336132E-1,6.019236E-1,6.3819727E-3,-3.4455976E-1,3.5481745E-1,1.0795342E-2,-2.3014108E-2,-4.590696E-1,5.3273416E-1,-0E0,-2.220033E-3,7.6372903E-3,-5.8722435E-3,-0E0,2.4976884E-3,7.347352E-3,-3.4196498E-3,3.5666805E-3],"categories":[],"categories_nodes":[],"categories_segments":[],"categories_sizes":[],"default_left":[0,0,0,0,0,0,0,0,0,0,0,0,0,0,0,0,0,0,0],"id":42,"left_children":[1,3,5,-1,7,9,-1,11,13,15,17,-1,-1,-1,-1,-1,-1,-1,-1],"loss_changes":[6.1740166E1,2.4731236E1,1.2642029E1,0E0,8.684078E0,5.08424E0,0E0,1.0744097E1,1.0614506E1,1.8844757E0,4.234938E0,0E0,0E0,0E0,0E0,0E0,0E0,0E0,0E0],"parents":[2147483647,0,0,1,1,2,2,4,4,5,5,7,7,8,8,9,9,10,10],"right_children":[2,4,6,-1,8,10,-1,12,14,16,18,-1,-1,-1,-1,-1,-1,-1,-1],"split_conditions":[5.729167E-1,7.3E1,6.7391306E-1,6.3819727E-3,4.375E-1,2.269E3,1.0795342E-2,4.318182E-1,5.368421E-1,5.1E1,2.696E3,-2.220033E-3,7.6372903E-3,-5.8722435E-3,-0E0,2.4976884E-3,7.347352E-3,-3.4196498E-3,3.5666805E-3],"split_indices":[0,3,0,0,0,2,0,0,0,4,2,0,0,0,0,0,0,0,0],"split_type":[0,0,0,0,0,0,0,0,0,0,0,0,0,0,0,0,0,0,0],"sum_hessian":[3.97341E2,2.7357928E2,1.2376171E2,2.6061174E1,2.4751813E2,8.5239876E1,3.852184E1,6.7923256E1,1.7959486E2,5.4613876E1,3.0625996E1,5.6371933E1,1.1551325E1,1.3976364E2,3.983123E1,2.6673187E1,2.7940691E1,1.4540733E1,1.6085262E1],"tree_param":{"num_deleted":"0","num_feature":"5","num_nodes":"19","size_leaf_vector":"1"}},{"base_weights":[2.0890424E-2,-2.9407096E-1,7.9900634E-1,2.7435806E-2,-4.952955E-1,5.3297126E-1,1.1415133E-2,-2.4378821E-1,7.5017816E-1,-6.097652E-1,1.10312186E-1,8.021862E-3,2.6584658E-1,2.778838E-5,-9.282091E-3,1.4908739E-3,9.699615E-3,-0E0,-7.0209587E-3,-4.137815E-3,5.507416E-3,-1.3941198E-3,7.908249E-3],"categories":[],"categories_nodes":[],"categories_segments":[],"categories_sizes":[],"default_left":[0,0,0,0,0,0,0,0,0,0,0,0,0,0,0,0,0,0,0,0,0,0,0],"id":43,"left_children":[1,3,5,7,9,11,-1,13,15,17,19,-1,21,-1,-1,-1,-1,-1,-1,-1,-1,-1,-1],"loss_changes":[9.929579E1,1.9006472E1,7.7742844E0,2.2460138E1,1.2973949E1,3.6311188E0,0E0,1.4529123E1,2.7594624E0,8.199993E0,7.194843E0,0E0,9.516499E0,0E0,0E0,0E0,0E0,0E0,0E0,0E0,0E0,0E0,0E0],"parents":[2147483647,0,0,1,1,2,2,3,3,4,4,5,5,7,7,8,8,9,9,10,10,12,12],"right_children":[2,4,6,8,10,12,-1,14,16,18,20,-1,22,-1,-1,-1,-1,-1,-1,-1,-1,-1,-1],"split_conditions":[5.903614E-1,3.7E1,6.7391306E-1,4.492E3,1.898E3,5.122E3,1.1415133E-2,7.8E1,9.4E2,4.246E3,5.638298E-1,8.021862E-3,2.758E3,2.778838E-5,-9.282091E-3,1.4908739E-3,9.699615E-3,-0E0,-7.0209587E-3,-4.137815E-3,5.507416E-3,-1.3941198E-3,7.908249E-3],"split_indices":[0,4,0,1,2,1,0,3,2,1,0,0,2,0,0,0,0,0,0,0,0,0,0],"split_type":[0,0,0,0,0,0,0,0,0,0,0,0,0,0,0,0,0,0,0,0,0,0,0],"sum_hessian":[3.991847E2,2.8413367E2,1.1505103E2,1.0812867E2,1.7600499E2,6.927499E1,4.577605E1,7.858121E1,2.954746E1,1.4940292E2,2.6602072E1,3.0642773E1,3.8632214E1,5.815962E1,2.0421587E1,1.0028069E1,1.9519392E1,2.0567858E1,1.2883507E2,1.1165757E1,1.5436316E1,2.1556023E1,1.7076189E1],"tree_param":{"num_deleted":"0","num_feature":"5","num_nodes":"23","size_leaf_vector":"1"}},{"base_weights":[2.7985843E-2,-2.6682225E-1,8.362892E-1,1.3910449E-1,-4.1772792E-1,9.195583E-4,9.73116E-1,-3.3659174E-3,9.171067E-3,-6.333943E-1,-5.9979793E-2,6.7082936E-1,1.1748111E-2,6.620323E-3,-2.6769019E-3,-7.2350577E-3,1.6358654E-3,-2.0689343E-3,4.683036E-3,1.0030742E-2,1.1104281E-3],"categories":[],"categories_nodes":[],"categories_segments":[],"categories_sizes":[],"default_left":[0,0,0,0,0,0,0,0,0,0,0,0,0,0,0,0,0,0,0,0,0],"id":44,"left_children":[1,3,5,7,9,-1,11,13,-1,15,17,19,-1,-1,-1,-1,-1,-1,-1,-1,-1],"loss_changes":[9.7400894E1,1.8587534E1,9.906738E0,9.808505E0,1.6111992E1,0E0,2.1351318E0,1.2040588E1,0E0,1.0459927E1,6.626079E0,6.683222E0,0E0,0E0,0E0,0E0,0E0,0E0,0E0,0E0,0E0],"parents":[2147483647,0,0,1,1,2,2,3,3,4,4,6,6,7,7,9,9,10,10,11,11],"right_children":[2,4,6,8,10,-1,12,14,-1,16,18,20,-1,-1,-1,-1,-1,-1,-1,-1,-1],"split_conditions":[6.0273975E-1,4.375E-1,2.083E3,5.095E3,1.552E3,9.195583E-4,6.7391306E-1,7.4E1,9.171067E-3,5.251E3,9.5E1,6.3414633E-1,1.1748111E-2,6.620323E-3,-2.6769019E-3,-7.2350577E-3,1.6358654E-3,-2.0689343E-3,4.683036E-3,1.0030742E-2,1.1104281E-3],"split_indices":[0,0,2,1,2,0,0,3,0,1,3,0,0,0,0,0,0,0,0,0,0],"split_type":[0,0,0,0,0,0,0,0,0,0,0,0,0,0,0,0,0,0,0,0,0],"sum_hessian":[4.024793E2,2.9499133E2,1.0748795E2,7.819133E1,2.168E2,1.83449E1,8.914305E1,6.668564E1,1.1505694E1,1.3255421E2,8.4245804E1,4.1122063E1,4.8020992E1,1.7027893E1,4.965774E1,1.2038219E2,1.2172017E1,6.834811E1,1.58976965E1,2.3690874E1,1.743119E1],"tree_param":{"num_deleted":"0","num_feature":"5","num_nodes":"21","size_leaf_vector":"1"}},{"base_weights":[-3.4660198E-2,-2.7977386E-1,7.315982E-1,4.8724672E-1,-3.5348383E-1,4.3662184E-1,1.017921E0,-0E0,8.977781E-3,2.1983336E-3,-4.0237176E-1,6.486786E-1,-0E0,1.19031165E-2,4.4392073E-3,-2.5298595E-3,-7.2131376E-3,1.0445913E-3,8.244615E-3],"categories":[],"categories_nodes":[],"categories_segments":[],"categories_sizes":[],"default_left":[0,0,0,0,0,0,0,0,0,0,0,0,0,0,0,0,0,0,0],"id":45,"left_children":[1,3,5,7,9,11,13,-1,-1,-1,15,17,-1,-1,-1,-1,-1,-1,-1],"loss_changes":[7.518829E1,1.750575E1,5.818615E0,5.9510093E0,8.247593E0,5.352749E0,1.8426399E0,0E0,0E0,0E0,1.1126476E1,2.405199E0,0E0,0E0,0E0,0E0,0E0,0E0,0E0],"parents":[2147483647,0,0,1,1,2,2,3,3,4,4,5,5,6,6,10,10,11,11],"right_children":[2,4,6,8,10,12,14,-1,-1,-1,16,18,-1,-1,-1,-1,-1,-1,-1],"split_conditions":[6E-1,3.722E3,6.7391306E-1,3.528E3,3.9506173E-1,6.3414633E-1,6.068E3,-0E0,8.977781E-3,2.1983336E-3,8.6E1,2.083E3,-0E0,1.19031165E-2,4.4392073E-3,-2.5298595E-3,-7.2131376E-3,1.0445913E-3,8.244615E-3],"split_indices":[0,1,0,1,0,0,1,0,0,0,3,2,0,0,0,0,0,0,0],"split_type":[0,0,0,0,0,0,0,0,0,0,0,0,0,0,0,0,0,0,0],"sum_hessian":[3.9854623E2,3.0390634E2,9.46399E1,2.4471403E1,2.7943494E2,5.082314E1,4.3816765E1,1.1290899E1,1.3180503E1,1.9799112E1,2.596358E2,3.4652725E1,1.617041E1,3.070537E1,1.3111394E1,1.8139563E2,7.824019E1,1.0627522E1,2.4025204E1],"tree_param":{"num_deleted":"0","num_feature":"5","num_nodes":"19","size_leaf_vector":"1"}},{"base_weights":[5.338424E-3,-2.7655333E-1,6.871204E-1,-3.1164357E-1,3.5348716E-3,2.964896E-1,8.21706E-1,-2.5991E-1,-9.667993E-3,4.9564037E-3,-1.6515958E-4,1.0637804E0,4.8385704E-1,-4.596574E-3,-9.09154E-4,6.7077335E-3,1.3291316E-2,2.0547754E-3,8.005396E-3],"categories":[],"categories_nodes":[],"categories_segments":[],"categories_sizes":[],"default_left":[0,0,0,0,0,0,0,0,0,0,0,0,0,0,0,0,0,0,0],"id":46,"left_children":[1,3,5,7,-1,9,11,13,-1,-1,-1,15,17,-1,-1,-1,-1,-1,-1],"loss_changes":[7.7657646E1,6.4428577E0,4.6300507E0,7.454792E0,0E0,2.7037559E0,4.389374E0,7.9833775E0,0E0,0E0,0E0,1.0381813E0,2.2750196E0,0E0,0E0,0E0,0E0,0E0,0E0],"parents":[2147483647,0,0,1,1,2,2,3,3,5,5,6,6,7,7,11,11,12,12],"right_children":[2,4,6,8,-1,10,12,14,-1,-1,-1,16,18,-1,-1,-1,-1,-1,-1],"split_conditions":[5.824176E-1,6.17E3,2.15E3,5.65E3,3.5348716E-3,6.1728394E-1,5.779E3,4.478E3,-9.667993E-3,4.9564037E-3,-1.6515958E-4,5.9E1,3.474E3,-4.596574E-3,-9.09154E-4,6.7077335E-3,1.3291316E-2,2.0547754E-3,8.005396E-3],"split_indices":[0,1,2,1,0,0,1,1,0,0,0,4,2,0,0,0,0,0,0],"split_type":[0,0,0,0,0,0,0,0,0,0,0,0,0,0,0,0,0,0,0],"sum_hessian":[3.9795596E2,2.8135007E2,1.1660591E2,2.6896777E2,1.2382296E1,3.342551E1,8.31804E1,2.5328705E2,1.5680723E1,2.166741E1,1.17581005E1,4.4230927E1,3.8949474E1,1.1179309E2,1.4149394E2,2.2190016E1,2.2040913E1,2.4163767E1,1.4785706E1],"tree_param":{"num_deleted":"0","num_feature":"5","num_nodes":"19","size_leaf_vector":"1"}},{"base_weights":[-4.5598928E-2,-3.1742948E-1,6.5588063E-1,-8.203771E-1,-1.9488382E-1,4.6601257E-1,9.236311E-1,-0E0,-1.1743083E-2,1.4258343E-1,-4.1102964E-1,6.92265E-3,5.1171016E-3,1.1439717E-2,2.2636042E-3,-6.7307503E-4,7.277324E-3,-6.8328585E-3,-1.2574976E-3,-1.9199754E-3,3.4303446E-3],"categories":[],"categories_nodes":[],"categories_segments":[],"categories_sizes":[],"default_left":[0,0,0,0,0,0,0,0,0,0,0,0,0,0,0,0,0,0,0,0,0],"id":47,"left_children":[1,3,5,7,9,11,13,-1,-1,15,17,-1,19,-1,-1,-1,-1,-1,-1,-1,-1],"loss_changes":[7.5616196E1,1.6408352E1,3.3549232E0,1.4716713E1,1.7578335E1,6.6717577E0,4.491745E0,0E0,0E0,1.2021181E1,1.0358782E1,0E0,2.065258E0,0E0,0E0,0E0,0E0,0E0,0E0,0E0,0E0],"parents":[2147483647,0,0,1,1,2,2,3,3,4,4,5,5,6,6,9,9,10,10,12,12],"right_children":[2,4,6,8,10,12,14,-1,-1,16,18,-1,20,-1,-1,-1,-1,-1,-1,-1,-1],"split_conditions":[5.8441556E-1,4.141E3,6.7391306E-1,3.747E3,1.193E3,6.233766E-1,6.043E3,-0E0,-1.1743083E-2,4.892E3,5.180723E-1,6.92265E-3,5.9E1,1.1439717E-2,2.2636042E-3,-6.7307503E-4,7.277324E-3,-6.8328585E-3,-1.2574976E-3,-1.9199754E-3,3.4303446E-3],"split_indices":[0,1,0,1,2,0,1,0,0,1,0,0,4,0,0,0,0,0,0,0,0],"split_type":[0,0,0,0,0,0,0,0,0,0,0,0,0,0,0,0,0,0,0,0,0],"sum_hessian":[3.941445E2,2.8588257E2,1.0826192E2,5.217963E1,2.3370294E2,6.873565E1,3.952627E1,1.7065332E1,3.51143E1,8.9703514E1,1.4399944E2,4.3974823E1,2.4760824E1,2.7971653E1,1.1554618E1,6.606662E1,2.363689E1,7.0460236E1,7.35392E1,1.4314942E1,1.0445882E1],"tree_param":{"num_deleted":"0","num_feature":"5","num_nodes":"21","size_leaf_vector":"1"}},{"base_weights":[1.0854997E-2,-2.885458E-1,5.178617E-1,-2.1703883E-1,-1.0480544E-2,1.3193761E-1,6.835134E-1,-3.283714E-1,5.857386E-1,-4.2647418E-2,6.2058787E-3,9.170033E-3,3.746898E-1,-5.395916E-3,-0E0,1.745307E-3,9.716347E-3,1.8961818E-3,-5.3724945E-3,-2.9733873E-3,7.675225E-3],"categories":[],"categories_nodes":[],"categories_segments":[],"categories_sizes":[],"default_left":[0,0,0,0,0,0,0,0,0,0,0,0,0,0,0,0,0,0,0,0,0],"id":48,"left_children":[1,3,5,7,-1,9,11,13,15,17,-1,-1,19,-1,-1,-1,-1,-1,-1,-1,-1],"loss_changes":[6.116278E1,1.1921743E1,8.6101265E0,2.0978092E1,0E0,4.846773E0,5.436737E0,1.3885042E1,2.9638815E0,4.7758474E0,0E0,0E0,1.3995304E1,0E0,0E0,0E0,0E0,0E0,0E0,0E0,0E0],"parents":[2147483647,0,0,1,1,2,2,3,3,5,5,6,6,7,7,8,8,9,9,12,12],"right_children":[2,4,6,8,-1,10,12,14,16,18,-1,-1,20,-1,-1,-1,-1,-1,-1,-1,-1],"split_conditions":[5.555556E-1,1.689E3,2.01E3,5.427E3,-1.0480544E-2,5.1E1,5.694E3,4.8E-1,4.5E1,1.783E3,6.2058787E-3,9.170033E-3,9.5E1,-5.395916E-3,-0E0,1.745307E-3,9.716347E-3,1.8961818E-3,-5.3724945E-3,-2.9733873E-3,7.675225E-3],"split_indices":[0,2,2,1,0,4,1,0,4,2,0,0,3,0,0,0,0,0,0,0,0],"split_type":[0,0,0,0,0,0,0,0,0,0,0,0,0,0,0,0,0,0,0,0,0],"sum_hessian":[3.9744223E2,2.491827E2,1.4825952E2,2.312947E2,1.7887999E1,4.7418E1,1.0084152E2,2.0525644E2,2.6038246E1,3.4773216E1,1.2644784E1,5.3337933E1,4.7503593E1,1.2244413E2,8.281231E1,1.5266405E1,1.0771842E1,2.3125078E1,1.1648138E1,1.6764582E1,3.0739012E1],"tree_param":{"num_deleted":"0","num_feature":"5","num_nodes":"21","size_leaf_vector":"1"}},{"base_weights":[4.87167E-2,-2.6148194E-1,8.860941E-1,-3.54271E-1,-1.7278383E-2,1.0015246E0,5.4729706E-1,-2.6058146E-1,-1.0274745E-2,8.603187E-3,-3.0758974E-1,5.063513E-3,1.1115434E-2,1.293907E-3,8.0352295E-3,-3.4330802E-3,1.3964431E-3,-5.64427E-3,-0E0],"categories":[],"categories_nodes":[],"categories_segments":[],"categories_sizes":[],"default_left":[0,0,0,0,0,0,0,0,0,0,0,0,0,0,0,0,0,0,0],"id":49,"left_children":[1,3,5,7,9,11,13,15,-1,-1,17,-1,-1,-1,-1,-1,-1,-1,-1],"loss_changes":[1.0940685E2,6.526409E0,1.8150177E0,1.1921169E1,2.2661516E1,1.6394272E0,2.6704493E0,6.765171E0,0E0,0E0,4.955361E0,0E0,0E0,0E0,0E0,0E0,0E0,0E0,0E0],"parents":[2147483647,0,0,1,1,2,2,3,3,4,4,5,5,6,6,7,7,10,10],"right_children":[2,4,6,8,10,12,14,16,-1,-1,18,-1,-1,-1,-1,-1,-1,-1,-1],"split_conditions":[6E-1,5.122E3,5.758E3,8.6E1,4.5679012E-1,5.2E1,9.7E1,4.3E1,-1.0274745E-2,8.603187E-3,5.411765E-1,5.063513E-3,1.1115434E-2,1.293907E-3,8.0352295E-3,-3.4330802E-3,1.3964431E-3,-5.64427E-3,-0E0],"split_indices":[0,1,1,3,0,4,3,4,0,0,0,0,0,0,0,0,0,0,0],"split_type":[0,0,0,0,0,0,0,0,0,0,0,0,0,0,0,0,0,0,0],"sum_hessian":[4.1500656E2,3.0295935E2,1.12047195E2,2.1592052E2,8.703884E1,7.845365E1,3.359354E1,1.9328122E2,2.2639297E1,1.980322E1,6.723562E1,1.7951532E1,6.050212E1,1.5395747E1,1.8197794E1,1.6247972E2,3.0801498E1,3.4116264E1,3.3119354E1],"tree_param":{"num_deleted":"0","num_feature":"5","num_nodes":"19","size_leaf_vector":"1"}},{"base_weights":[1.0976536E-2,-2.0339003E-1,6.1551195E-1,3.0338508E-1,-2.7892393E-1,3.5389745E-1,8.482099E-3,5.504801E-1,-1.3187795E-4,-4.553055E-1,1.7611627E-2,5.133747E-1,-0E0,6.1848667E-4,8.456606E-3,-3.6537352E-3,-9.599733E-3,4.5381305E-3,-2.3006264E-3,1.6188183E-3,8.746779E-3],"categories":[],"categories_nodes":[],"categories_segments":[],"categories_sizes":[],"default_left":[0,0,0,0,0,0,0,0,0,0,0,0,0,0,0,0,0,0,0,0,0],"id":50,"left_children":[1,3,5,7,9,11,-1,13,-1,15,17,19,-1,-1,-1,-1,-1,-1,-1,-1,-1],"loss_changes":[5.2407566E1,1.1438909E1,4.665222E0,3.4862068E0,1.4028393E1,3.129963E0,0E0,2.289308E0,0E0,5.4585304E0,1.0869818E1,3.5359344E0,0E0,0E0,0E0,0E0,0E0,0E0,0E0,0E0,0E0],"parents":[2147483647,0,0,1,1,2,2,3,3,4,4,5,5,7,7,9,9,10,10,11,11],"right_children":[2,4,6,8,10,12,-1,14,-1,16,18,20,-1,-1,-1,-1,-1,-1,-1,-1,-1],"split_conditions":[5.903614E-1,7.4E1,6E1,3.747E3,5.066E3,2.244E3,8.482099E-3,3.528E3,-1.3187795E-4,4.4E1,1.515E3,5.2E1,-0E0,6.1848667E-4,8.456606E-3,-3.6537352E-3,-9.599733E-3,4.5381305E-3,-2.3006264E-3,1.6188183E-3,8.746779E-3],"split_indices":[0,3,4,1,1,2,0,1,0,4,2,4,0,0,0,0,0,0,0,0,0],"split_type":[0,0,0,0,0,0,0,0,0,0,0,0,0,0,0,0,0,0,0,0,0],"sum_hessian":[3.9729153E2,2.9304984E2,1.0424169E2,3.5512924E1,2.575369E2,5.3468243E1,5.077345E1,2.0889277E1,1.4623648E1,1.6292773E2,9.460918E1,3.623509E1,1.7233152E1,1.0053643E1,1.0835632E1,1.4289352E2,2.00342E1,3.5123318E1,5.9485863E1,2.1237803E1,1.4997285E1],"tree_param":{"num_deleted":"0","num_feature":"5","num_nodes":"21","size_leaf_vector":"1"}},{"base_weights":[-5.6124195E-2,-3.0028173E-1,8.096139E-1,2.4773046E-2,-3.6016822E-1,1.1283736E-2,4.5038417E-1,-3.2263407E-1,4.98224E-1,-4.5633987E-1,-1.0878459E-1,-2.3379158E-3,7.171139E-3,7.134109E-4,-9.033343E-3,7.5676697E-3,7.577843E-4,-0E0,-5.7306536E-3,-4.4616307E-3,1.6756888E-4],"categories":[],"categories_nodes":[],"categories_segments":[],"categories_sizes":[],"default_left":[0,0,0,0,0,0,0,0,0,0,0,0,0,0,0,0,0,0,0,0,0],"id":51,"left_children":[1,3,5,7,9,-1,11,13,15,17,19,-1,-1,-1,-1,-1,-1,-1,-1,-1,-1],"loss_changes":[8.545592E1,6.539524E0,7.550171E0,8.50949E0,5.8891945E0,0E0,9.296914E0,7.3879137E0,1.5234432E0,1.0597717E1,3.854501E0,0E0,0E0,0E0,0E0,0E0,0E0,0E0,0E0,0E0,0E0],"parents":[2147483647,0,0,1,1,2,2,3,3,4,4,6,6,7,7,8,8,9,9,10,10],"right_children":[2,4,6,8,10,-1,12,14,16,18,20,-1,-1,-1,-1,-1,-1,-1,-1,-1,-1],"split_conditions":[2.15E3,4.1558442E-1,5.814E3,7.57E2,5.368421E-1,1.1283736E-2,9.5E1,2.9E1,8.66E2,7.7E1,8E1,-2.3379158E-3,7.171139E-3,7.134109E-4,-9.033343E-3,7.5676697E-3,7.577843E-4,-0E0,-5.7306536E-3,-4.4616307E-3,1.6756888E-4],"split_indices":[2,0,1,2,0,0,3,4,2,3,3,0,0,0,0,0,0,0,0,0,0],"split_type":[0,0,0,0,0,0,0,0,0,0,0,0,0,0,0,0,0,0,0,0,0],"sum_hessian":[4.0239233E2,3.15793E2,8.659932E1,4.6713528E1,2.6907947E2,4.2140423E1,4.4458893E1,2.609245E1,2.0621078E1,1.9056615E2,7.8513336E1,1.1488401E1,3.2970493E1,1.5564781E1,1.0527668E1,1.034179E1,1.0279289E1,3.818658E1,1.5237956E2,2.2067394E1,5.6445946E1],"tree_param":{"num_deleted":"0","num_feature":"5","num_nodes":"21","size_leaf_vector":"1"}},{"base_weights":[-1.6964229E-2,-2.6641577E-1,4.92137E-1,1.7897198E-1,-4.3742222E-1,2.7736396E-1,8.486664E-1,-0E0,9.222893E-3,-5.71447E-1,4.4234574E-1,7.6122046E-1,6.2122356E-2,1.051556E0,8.498264E-4,5.749798E-3,-2.3465129E-3,-6.2702E-3,-0E0,9.818807E-3,-2.4313875E-4,2.7826328E-3,1.0196023E-2,-3.276345E-3,1.896396E-3,4.0471316E-3,1.2484177E-2],"categories":[],"categories_nodes":[],"categories_segments":[],"categories_sizes":[],"default_left":[0,0,0,0,0,0,0,0,0,0,0,0,0,0,0,0,0,0,0,0,0,0,0,0,0,0,0],"id":52,"left_children":[1,3,5,7,9,11,13,15,-1,17,19,21,23,25,-1,-1,-1,-1,-1,-1,-1,-1,-1,-1,-1,-1,-1],"loss_changes":[4.8745724E1,2.0220303E1,8.014236E0,1.0184658E1,2.3048977E1,7.7314873E0,5.574169E0,8.037909E0,0E0,5.6600647E0,7.3682446E0,1.1248426E0,3.0224295E0,1.6557503E0,0E0,0E0,0E0,0E0,0E0,0E0,0E0,0E0,0E0,0E0,0E0,0E0,0E0],"parents":[2147483647,0,0,1,1,2,2,3,3,4,4,5,5,6,6,7,7,9,9,10,10,11,11,12,12,13,13],"right_children":[2,4,6,8,10,12,14,16,-1,18,20,22,24,26,-1,-1,-1,-1,-1,-1,-1,-1,-1,-1,-1,-1,-1],"split_conditions":[5.729167E-1,4.3589744E-1,6.7391306E-1,5.095E3,9.2E1,4.678E3,5.973E3,7.4E1,9.222893E-3,5.601E3,1.712E3,1.669E3,5.1E1,2.594E3,8.498264E-4,5.749798E-3,-2.3465129E-3,-6.2702E-3,-0E0,9.818807E-3,-2.4313875E-4,2.7826328E-3,1.0196023E-2,-3.276345E-3,1.896396E-3,4.0471316E-3,1.2484177E-2],"split_indices":[0,0,0,1,3,1,1,3,0,1,2,2,4,2,0,0,0,0,0,0,0,0,0,0,0,0,0],"split_type":[0,0,0,0,0,0,0,0,0,0,0,0,0,0,0,0,0,0,0,0,0,0,0,0,0,0,0],"sum_hessian":[3.8154895E2,2.5803403E2,1.23514946E2,6.9938286E1,1.8809573E2,8.105075E1,4.2464188E1,5.7256115E1,1.2682169E1,1.6482387E2,2.3271866E1,2.1961918E1,5.9088837E1,3.1920462E1,1.0543727E1,1.4930621E1,4.2325497E1,1.5095956E2,1.3864304E1,1.0762924E1,1.2508941E1,1.0451158E1,1.151076E1,1.1859498E1,4.7229336E1,1.0059286E1,2.1861176E1],"tree_param":{"num_deleted":"0","num_feature":"5","num_nodes":"27","size_leaf_vector":"1"}},{"base_weights":[-4.3437883E-2,-2.7738807E-1,7.110072E-1,4.077325E-1,-3.4261408E-1,1.0145418E-2,3.923686E-1,-2.945163E-5,8.112478E-3,-4.3830085E-1,1.0043718E-1,-1.3402881E-3,6.465552E-1,-3.4406423E-3,-1.0265109E-2,-1.4068426E-3,3.0466567E-3,1.3555733E-3,8.222341E-3],"categories":[],"categories_nodes":[],"categories_segments":[],"categories_sizes":[],"default_left":[0,0,0,0,0,0,0,0,0,0,0,0,0,0,0,0,0,0,0],"id":53,"left_children":[1,3,5,7,9,-1,11,-1,-1,13,15,-1,17,-1,-1,-1,-1,-1,-1],"loss_changes":[6.9044945E1,1.3674715E1,6.7137604E0,5.0825844E0,1.2188057E1,0E0,7.3554683E0,0E0,0E0,1.0694244E1,2.6650763E0,0E0,1.9827652E0,0E0,0E0,0E0,0E0,0E0,0E0],"parents":[2147483647,0,0,1,1,2,2,3,3,4,4,6,6,9,9,10,10,12,12],"right_children":[2,4,6,8,10,-1,12,-1,-1,14,16,-1,18,-1,-1,-1,-1,-1,-1],"split_conditions":[2.109E3,3.722E3,5.779E3,3.61E3,5.6578946E-1,1.0145418E-2,9.5E1,-2.945163E-5,8.112478E-3,1.641E3,8.2E1,-1.3402881E-3,2.941E3,-3.4406423E-3,-1.0265109E-2,-1.4068426E-3,3.0466567E-3,1.3555733E-3,8.222341E-3],"split_indices":[2,1,1,1,0,0,3,0,0,2,3,0,2,0,0,0,0,0,0],"split_type":[0,0,0,0,0,0,0,0,0,0,0,0,0,0,0,0,0,0,0],"sum_hessian":[3.894057E2,2.992116E2,9.019411E1,2.3764172E1,2.7544745E2,4.234755E1,4.7846558E1,1.1533319E1,1.2230852E1,2.2839827E2,4.7049175E1,1.4607357E1,3.32392E1,2.0105704E2,2.7341228E1,1.9615746E1,2.7433428E1,1.0866682E1,2.2372519E1],"tree_param":{"num_deleted":"0","num_feature":"5","num_nodes":"19","size_leaf_vector":"1"}},{"base_weights":[1.2929638E-2,-2.4219622E-1,5.8586806E-1,1.2572315E-1,-3.1910154E-1,-0E0,7.0792943E-1,-1.686676E-1,9.64926E-3,-3.9401883E-1,-2.570802E-2,1.0463369E-2,3.3988124E-1,-4.9620783E-3,1.4519559E-3,-4.620432E-3,1.4808465E-3,2.2065744E-3,-2.4247777E-3,-4.8577785E-3,6.237002E-3],"categories":[],"categories_nodes":[],"categories_segments":[],"categories_sizes":[],"default_left":[0,0,0,0,0,0,0,0,0,0,0,0,0,0,0,0,0,0,0,0,0],"id":54,"left_children":[1,3,5,7,9,-1,11,13,-1,15,17,-1,19,-1,-1,-1,-1,-1,-1,-1,-1],"loss_changes":[5.8294445E1,8.00305E0,8.23584E0,1.2588845E1,4.5881767E0,0E0,1.047081E1,4.1118865E0,0E0,7.0653744E0,2.873071E0,0E0,1.309711E1,0E0,0E0,0E0,0E0,0E0,0E0,0E0,0E0],"parents":[2147483647,0,0,1,1,2,2,3,3,4,4,6,6,7,7,9,9,10,10,12,12],"right_children":[2,4,6,8,10,-1,12,14,-1,16,18,-1,20,-1,-1,-1,-1,-1,-1,-1,-1],"split_conditions":[5.7608694E-1,4.1666666E-1,5.1E1,4.831E3,5.368421E-1,-0E0,5.482E3,3.902439E-1,9.64926E-3,9.1E1,4.812E3,1.0463369E-2,2.733E3,-4.9620783E-3,1.4519559E-3,-4.620432E-3,1.4808465E-3,2.2065744E-3,-2.4247777E-3,-4.8577785E-3,6.237002E-3],"split_indices":[0,0,4,1,0,0,1,0,0,3,1,0,2,0,0,0,0,0,0,0,0],"split_type":[0,0,0,0,0,0,0,0,0,0,0,0,0,0,0,0,0,0,0,0,0],"sum_hessian":[3.925162E2,2.7117352E2,1.213427E2,4.441537E1,2.2675815E2,2.2433325E1,9.890937E1,3.3181713E1,1.1233659E1,1.7737225E2,4.9385883E1,4.819388E1,5.0715492E1,1.7227581E1,1.5954133E1,1.5949811E2,1.787415E1,2.0939005E1,2.8446878E1,1.1708298E1,3.9007195E1],"tree_param":{"num_deleted":"0","num_feature":"5","num_nodes":"21","size_leaf_vector":"1"}},{"base_weights":[4.7238015E-2,-1.9256715E-1,6.6235554E-1,6.2319892E-3,-2.3581846E-1,1.0841061E-4,7.516932E-1,-1.4038129E-1,-4.958238E-1,5.3685486E-1,9.700397E-3,-2.5435612E-3,1.1220579E-3,4.485666E-4,-8.130166E-3,1.0735211E-2,2.6743796E-3],"categories":[],"categories_nodes":[],"categories_segments":[],"categories_sizes":[],"default_left":[0,0,0,0,0,0,0,0,0,0,0,0,0,0,0,0,0],"id":55,"left_children":[1,3,5,-1,7,-1,9,11,13,15,-1,-1,-1,-1,-1,-1,-1],"loss_changes":[5.9288696E1,9.998744E0,5.7973785E0,0E0,6.0298576E0,0E0,2.0477524E0,6.135897E0,1.2851812E1,6.2068863E0,0E0,0E0,0E0,0E0,0E0,0E0,0E0],"parents":[2147483647,0,0,1,1,2,2,4,4,6,6,7,7,8,8,9,9],"right_children":[2,4,6,-1,8,-1,10,12,14,16,-1,-1,-1,-1,-1,-1,-1],"split_conditions":[5.8441556E-1,3.6231884E-1,5.1E1,6.2319892E-3,8.6E1,1.0841061E-4,6.7391306E-1,5.064935E-1,4.7368422E-1,5.048E3,9.700397E-3,-2.5435612E-3,1.1220579E-3,4.485666E-4,-8.130166E-3,1.0735211E-2,2.6743796E-3],"split_indices":[0,0,4,0,3,0,0,0,0,1,0,0,0,0,0,0,0],"split_type":[0,0,0,0,0,0,0,0,0,0,0,0,0,0,0,0,0],"sum_hessian":[3.9502026E2,2.840362E2,1.1098407E2,1.1786771E1,2.7224942E2,1.5003553E1,9.598052E1,2.042161E2,6.803334E1,5.4174137E1,4.180638E1,1.4343773E2,6.0778362E1,2.46241E1,4.340924E1,1.4870947E1,3.9303192E1],"tree_param":{"num_deleted":"0","num_feature":"5","num_nodes":"17","size_leaf_vector":"1"}},{"base_weights":[-5.6043785E-4,-2.3334056E-1,6.891573E-1,1.5482502E-1,-3.3361554E-1,4.7977954E-1,9.4387345E-3,-1.119382E-1,5.865161E-3,-8.762019E-3,-2.3224618E-1,6.2783456E-1,3.242771E-5,2.629006E-3,-5.7209977E-3,1.8932099E-3,-4.176376E-3,1.3349251E-3,7.3370617E-3],"categories":[],"categories_nodes":[],"categories_segments":[],"categories_sizes":[],"default_left":[0,0,0,0,0,0,0,0,0,0,0,0,0,0,0,0,0,0,0],"id":56,"left_children":[1,3,5,7,9,11,-1,13,-1,-1,15,17,-1,-1,-1,-1,-1,-1,-1],"loss_changes":[6.3807533E1,1.1972425E1,2.9994392E0,7.6280613E0,1.1760023E1,3.6729784E0,0E0,7.15348E0,0E0,0E0,1.6614872E1,1.2908154E0,0E0,0E0,0E0,0E0,0E0,0E0,0E0],"parents":[2147483647,0,0,1,1,2,2,3,3,4,4,5,5,7,7,10,10,11,11],"right_children":[2,4,6,8,10,12,-1,14,-1,-1,16,18,-1,-1,-1,-1,-1,-1,-1],"split_conditions":[5.3E1,4.057E3,6.7391306E-1,4.625E-1,9.9E2,6.3414633E-1,9.4387345E-3,7.4E1,5.865161E-3,-8.762019E-3,4.7126436E-1,5.890411E-1,3.242771E-5,2.629006E-3,-5.7209977E-3,1.8932099E-3,-4.176376E-3,1.3349251E-3,7.3370617E-3],"split_indices":[4,1,0,0,2,0,0,3,0,0,0,0,0,0,0,0,0,0,0],"split_type":[0,0,0,0,0,0,0,0,0,0,0,0,0,0,0,0,0,0,0],"sum_hessian":[3.9626038E2,2.9834277E2,9.791761E1,5.8977936E1,2.3936484E2,5.906172E1,3.8855885E1,3.5936146E1,2.304179E1,3.3720634E1,2.056442E2,4.297605E1,1.6085672E1,1.907898E1,1.6857164E1,6.1152134E1,1.4449207E2,1.0044211E1,3.293184E1],"tree_param":{"num_deleted":"0","num_feature":"5","num_nodes":"19","size_leaf_vector":"1"}},{"base_weights":[-4.560993E-2,-2.9125142E-1,5.901887E-1,-3.4871462E-1,6.1105257E-3,3.6633575E-1,9.4931E-3,5.8105085E-3,-4.543298E-1,5.566355E-1,8.420818E-2,-2.772501E-3,5.749022E-3,-6.2049874E-3,-1.4231802E-3,3.0550866E-3,8.4901415E-3,-5.0458503E-3,5.406261E-3],"categories":[],"categories_nodes":[],"categories_segments":[],"categories_sizes":[],"default_left":[0,0,0,0,0,0,0,0,0,0,0,0,0,0,0,0,0,0,0],"id":57,"left_children":[1,3,5,7,-1,9,-1,11,13,15,17,-1,-1,-1,-1,-1,-1,-1,-1],"loss_changes":[6.2642033E1,1.5282133E1,6.930126E0,1.08045845E1,0E0,3.2108707E0,0E0,1.0805561E1,1.0217312E1,1.3674011E0,9.738787E0,0E0,0E0,0E0,0E0,0E0,0E0,0E0,0E0],"parents":[2147483647,0,0,1,1,2,2,3,3,5,5,7,7,8,8,9,9,10,10],"right_children":[2,4,6,8,-1,10,-1,12,14,16,18,-1,-1,-1,-1,-1,-1,-1,-1],"split_conditions":[5.875E-1,9.5E1,6.888889E-1,4.2857143E-1,6.1105257E-3,2.269E3,9.4931E-3,4.529E3,5.176471E-1,8.5E1,2.696E3,-2.772501E-3,5.749022E-3,-6.2049874E-3,-1.4231802E-3,3.0550866E-3,8.4901415E-3,-5.0458503E-3,5.406261E-3],"split_indices":[0,3,0,0,0,2,0,1,0,3,2,0,0,0,0,0,0,0,0],"split_type":[0,0,0,0,0,0,0,0,0,0,0,0,0,0,0,0,0,0,0],"sum_hessian":[3.9880533E2,2.8958176E2,1.0922357E2,2.7443942E2,1.5142337E1,7.1487595E1,3.7735977E1,6.1252132E1,2.1318729E2,3.9412636E1,3.207496E1,4.041738E1,2.0834755E1,1.3572266E2,7.746464E1,2.524204E1,1.4170594E1,1.2957432E1,1.9117527E1],"tree_param":{"num_deleted":"0","num_feature":"5","num_nodes":"19","size_leaf_vector":"1"}},{"base_weights":[3.930962E-2,-2.1616964E-1,8.3781177E-1,2.7525735E-3,-2.6736596E-1,9.0543574E-1,1.3789308E-3,-7.6139086E-1,-1.7919706E-1,6.3987136E-1,1.1523012E-2,-1.1683633E-3,-1.1192978E-2,3.6068135E-3,-2.5023543E-3,1.0401451E-2,3.429978E-3],"categories":[],"categories_nodes":[],"categories_segments":[],"categories_sizes":[],"default_left":[0,0,0,0,0,0,0,0,0,0,0,0,0,0,0,0,0],"id":58,"left_children":[1,3,5,-1,7,9,-1,11,13,15,-1,-1,-1,-1,-1,-1,-1],"loss_changes":[8.240611E1,7.7631054E0,3.350418E0,0E0,1.0864609E1,2.4892044E0,0E0,7.6515465E0,9.260349E0,3.6959286E0,0E0,0E0,0E0,0E0,0E0,0E0,0E0],"parents":[2147483647,0,0,1,1,2,2,4,4,5,5,7,7,8,8,9,9],"right_children":[2,4,6,-1,8,10,-1,12,14,16,-1,-1,-1,-1,-1,-1,-1],"split_conditions":[6.0465115E-1,7.3E1,1E2,2.7525735E-3,4.141E3,6.7391306E-1,1.3789308E-3,7.62E2,4.279E3,4.985E3,1.1523012E-2,-1.1683633E-3,-1.1192978E-2,3.6068135E-3,-2.5023543E-3,1.0401451E-2,3.429978E-3],"split_indices":[0,3,3,0,1,0,0,2,1,1,0,0,0,0,0,0,0],"split_type":[0,0,0,0,0,0,0,0,0,0,0,0,0,0,0,0,0],"sum_hessian":[3.971273E2,3.0102206E2,9.610523E1,2.5732584E1,2.752895E2,8.5799545E1,1.0305684E1,3.7660183E1,2.376293E2,4.674673E1,3.9052814E1,1.5390446E1,2.2269737E1,2.504681E1,2.125825E2,1.6339912E1,3.0406816E1],"tree_param":{"num_deleted":"0","num_feature":"5","num_nodes":"17","size_leaf_vector":"1"}},{"base_weights":[6.61593E-2,-1.9308533E-1,7.1505463E-1,-4.3952346E-1,-4.9252648E-2,8.359563E-1,2.8732672E-1,2.787402E-1,-7.100155E-1,5.5387855E-1,-1.3676612E-1,3.0645612E-3,9.1879405E-3,-1.1453868E-3,5.4481034E-3,-1.326706E-3,6.521488E-3,-1.0506594E-2,-3.4789958E-3,8.1038205E-3,1.3942915E-3,-6.1764405E-3,-1.4159082E-4],"categories":[],"categories_nodes":[],"categories_segments":[],"categories_sizes":[],"default_left":[0,0,0,0,0,0,0,0,0,0,0,0,0,0,0,0,0,0,0,0,0,0,0],"id":59,"left_children":[1,3,5,7,9,11,13,15,17,19,21,-1,-1,-1,-1,-1,-1,-1,-1,-1,-1,-1,-1],"loss_changes":[6.9669785E1,9.853879E0,4.519108E0,2.1260475E1,9.754355E0,2.1345673E0,3.75881E0,5.1778336E0,7.4889145E0,1.2695856E0,9.304968E0,0E0,0E0,0E0,0E0,0E0,0E0,0E0,0E0,0E0,0E0,0E0,0E0],"parents":[2147483647,0,0,1,1,2,2,3,3,4,4,5,5,6,6,7,7,8,8,9,9,10,10],"right_children":[2,4,6,8,10,12,14,16,18,20,22,-1,-1,-1,-1,-1,-1,-1,-1,-1,-1,-1,-1],"split_conditions":[5.862069E-1,4.392E3,6.068E3,3.747E3,7.9E1,6E-1,6.565E3,3.1E1,4.121E3,1.066E3,4.724E3,3.0645612E-3,9.1879405E-3,-1.1453868E-3,5.4481034E-3,-1.326706E-3,6.521488E-3,-1.0506594E-2,-3.4789958E-3,8.1038205E-3,1.3942915E-3,-6.1764405E-3,-1.4159082E-4],"split_indices":[0,1,1,1,3,0,1,4,1,2,1,0,0,0,0,0,0,0,0,0,0,0,0],"split_type":[0,0,0,0,0,0,0,0,0,0,0,0,0,0,0,0,0,0,0,0,0,0,0],"sum_hessian":[4.0740796E2,2.9100882E2,1.1639913E2,1.0317245E2,1.8783638E2,8.7437325E1,2.896181E1,2.7196636E1,7.5975815E1,2.100282E1,1.6683356E2,1.4733214E1,7.270411E1,1.0226878E1,1.8734932E1,1.2279175E1,1.491746E1,3.576608E1,4.0209732E1,1.0302868E1,1.069995E1,3.0597107E1,1.3623645E2],"tree_param":{"num_deleted":"0","num_feature":"5","num_nodes":"23","size_leaf_vector":"1"}},{"base_weights":[-9.062796E-3,-2.345789E-1,7.6336175E-1,-2.958435E-1,1.5233679E-1,4.8448136E-1,1.0792621E-2,-3.9445966E-1,3.6914863E-2,5.188716E-3,-3.0367246E-3,1.9600117E-1,7.1003535E-3,1.7118439E-3,-4.657366E-3,5.6300983E-3,-6.0009584E-3,4.8019234E-3,-1.7942507E-3],"categories":[],"categories_nodes":[],"categories_segments":[],"categories_sizes":[],"default_left":[0,0,0,0,0,0,0,0,0,0,0,0,0,0,0,0,0,0,0],"id":60,"left_children":[1,3,5,7,9,11,-1,13,15,-1,-1,17,-1,-1,-1,-1,-1,-1,-1],"loss_changes":[6.972773E1,7.65592E0,5.332302E0,9.352764E0,7.532189E0,2.2765436E0,0E0,9.051903E0,2.1407614E1,0E0,0E0,3.4655023E0,0E0,0E0,0E0,0E0,0E0,0E0,0E0],"parents":[2147483647,0,0,1,1,2,2,3,3,4,4,5,5,7,7,8,8,11,11],"right_children":[2,4,6,8,10,12,-1,14,16,-1,-1,18,-1,-1,-1,-1,-1,-1,-1],"split_conditions":[2.15E3,5.7608694E-1,6.7391306E-1,5.251E3,4.858E3,9.5E1,1.0792621E-2,3.722E3,5.0549453E-1,5.188716E-3,-3.0367246E-3,5.779E3,7.1003535E-3,1.7118439E-3,-4.657366E-3,5.6300983E-3,-6.0009584E-3,4.8019234E-3,-1.7942507E-3],"split_indices":[2,0,0,1,1,3,0,1,0,0,0,1,0,0,0,0,0,0,0],"split_type":[0,0,0,0,0,0,0,0,0,0,0,0,0,0,0,0,0,0,0],"sum_hessian":[3.9926706E2,3.111201E2,8.814699E1,2.7122873E2,3.989134E1,5.1189327E1,3.6957657E1,2.1125548E2,5.997325E1,2.3178204E1,1.6713133E1,2.6047039E1,2.5142288E1,2.175753E1,1.8949796E2,3.3833218E1,2.6140036E1,1.6023243E1,1.0023796E1],"tree_param":{"num_deleted":"0","num_feature":"5","num_nodes":"19","size_leaf_vector":"1"}},{"base_weights":[-1.8610248E-2,-2.736131E-1,7.2719824E-1,7.0762046E-2,-3.8889036E-1,5.01523E-4,8.549757E-1,-7.6441936E-2,7.926513E-3,-6.004754E-1,-9.161528E-2,5.243554E-1,9.936782E-3,3.333998E-4,-5.9405533E-3,-1.3934454E-3,-8.394024E-3,1.5637556E-3,-4.139204E-3,1.0053221E-2,1.2474244E-3],"categories":[],"categories_nodes":[],"categories_segments":[],"categories_sizes":[],"default_left":[0,0,0,0,0,0,0,0,0,0,0,0,0,0,0,0,0,0,0,0,0],"id":61,"left_children":[1,3,5,7,9,-1,11,13,-1,15,17,19,-1,-1,-1,-1,-1,-1,-1,-1,-1],"loss_changes":[7.5896355E1,1.2285078E1,7.772999E0,8.78271E0,1.34941635E1,0E0,1.2852058E0,4.1676774E0,0E0,1.3160629E1,8.286573E0,4.605582E0,0E0,0E0,0E0,0E0,0E0,0E0,0E0,0E0,0E0],"parents":[2147483647,0,0,1,1,2,2,3,3,4,4,6,6,7,7,9,9,10,10,11,11],"right_children":[2,4,6,8,10,-1,12,14,-1,16,18,20,-1,-1,-1,-1,-1,-1,-1,-1,-1],"split_conditions":[2.093E3,4.3589744E-1,5.974026E-1,5.089E3,5.180723E-1,5.01523E-4,5.9E1,8.3E1,7.926513E-3,1.088E3,4.858E3,5.4E1,9.936782E-3,3.333998E-4,-5.9405533E-3,-1.3934454E-3,-8.394024E-3,1.5637556E-3,-4.139204E-3,1.0053221E-2,1.2474244E-3],"split_indices":[2,0,0,1,0,0,4,3,0,2,1,4,0,0,0,0,0,0,0,0,0],"split_type":[0,0,0,0,0,0,0,0,0,0,0,0,0,0,0,0,0,0,0,0,0],"sum_hessian":[3.9736206E2,2.9805856E2,9.9303505E1,7.276891E1,2.2528966E2,1.7450546E1,8.185296E1,6.077828E1,1.1990633E1,1.2845692E2,9.683273E1,2.9146944E1,5.2706013E1,5.0093136E1,1.0685143E1,4.6351E1,8.210593E1,5.3553852E1,4.327888E1,1.0715757E1,1.8431187E1],"tree_param":{"num_deleted":"0","num_feature":"5","num_nodes":"21","size_leaf_vector":"1"}},{"base_weights":[-2.9796544E-2,-2.3594974E-1,6.6001225E-1,2.1109388E-4,-3.9063615E-1,4.7130775E-1,9.961371E-3,-2.3885758E-1,5.205888E-1,-7.038325E-1,-1.7938519E-1,9.756541E-3,2.601098E-1,1.4535491E-3,-8.396623E-3,-3.0094676E-4,8.811737E-3,-4.188952E-3,-1.0935679E-2,4.114841E-3,-3.0212745E-3,1.12218535E-4,6.8577626E-3],"categories":[],"categories_nodes":[],"categories_segments":[],"categories_sizes":[],"default_left":[0,0,0,0,0,0,0,0,0,0,0,0,0,0,0,0,0,0,0,0,0,0,0],"id":62,"left_children":[1,3,5,7,9,11,-1,13,15,17,19,-1,21,-1,-1,-1,-1,-1,-1,-1,-1,-1,-1],"loss_changes":[5.5848003E1,1.15530205E1,3.2992973E0,1.5505562E1,1.1249226E1,5.000595E0,0E0,1.9990433E1,8.814763E0,5.65691E0,8.579596E0,0E0,4.4523783E0,0E0,0E0,0E0,0E0,0E0,0E0,0E0,0E0,0E0,0E0],"parents":[2147483647,0,0,1,1,2,2,3,3,4,4,5,5,7,7,8,8,9,9,10,10,12,12],"right_children":[2,4,6,8,10,12,-1,14,16,18,20,-1,22,-1,-1,-1,-1,-1,-1,-1,-1,-1,-1],"split_conditions":[6.0674155E-1,1.107E3,6.976744E-1,4.452E3,4.3E1,4.643E3,9.961371E-3,7.7E1,9.56E2,1.289E3,5.0549453E-1,9.756541E-3,6.409E3,1.4535491E-3,-8.396623E-3,-3.0094676E-4,8.811737E-3,-4.188952E-3,-1.0935679E-2,4.114841E-3,-3.0212745E-3,1.12218535E-4,6.8577626E-3],"split_indices":[0,2,0,1,4,1,0,3,2,2,0,0,1,0,0,0,0,0,0,0,0,0,0],"split_type":[0,0,0,0,0,0,0,0,0,0,0,0,0,0,0,0,0,0,0,0,0,0,0],"sum_hessian":[3.9151706E2,3.0356158E2,8.795548E1,1.1837311E2,1.8518848E2,6.1313053E1,2.6642435E1,8.0534676E1,3.7838436E1,7.080993E1,1.1437854E2,1.4562731E1,4.675032E1,4.903113E1,3.150354E1,1.4600475E1,2.323796E1,4.4783787E1,2.6026142E1,1.7462717E1,9.6915825E1,3.227882E1,1.44715E1],"tree_param":{"num_deleted":"0","num_feature":"5","num_nodes":"23","size_leaf_vector":"1"}},{"base_weights":[6.697193E-2,-1.4895949E-1,8.174222E-1,-3.050881E-1,9.533286E-2,5.942593E-3,1.0355956E-2,-2.2333063E-1,-1.0626323E-2,6.160598E-3,-2.2384545E-2,3.029993E-3,-3.0802556E-3,-3.165142E-3,2.3503671E-3],"categories":[],"categories_nodes":[],"categories_segments":[],"categories_sizes":[],"default_left":[0,0,0,0,0,0,0,0,0,0,0,0,0,0,0],"id":63,"left_children":[1,3,5,7,9,-1,-1,11,-1,-1,13,-1,-1,-1,-1],"loss_changes":[6.548485E1,1.2095584E1,1.539856E0,1.0141069E1,7.9733653E0,0E0,0E0,8.089431E0,0E0,0E0,7.664604E0,0E0,0E0,0E0,0E0],"parents":[2147483647,0,0,1,1,2,2,3,3,4,4,7,7,10,10],"right_children":[2,4,6,8,10,-1,-1,12,-1,-1,14,-1,-1,-1,-1],"split_conditions":[6.0674155E-1,5.006E3,6.7391306E-1,8.6E1,4.5679012E-1,5.942593E-3,1.0355956E-2,3.722E3,-1.0626323E-2,6.160598E-3,5.4E-1,3.029993E-3,-3.0802556E-3,-3.165142E-3,2.3503671E-3],"split_indices":[0,1,0,3,0,0,0,1,0,0,0,0,0,0,0],"split_type":[0,0,0,0,0,0,0,0,0,0,0,0,0,0,0],"sum_hessian":[3.9648526E2,3.0810336E2,8.838189E1,1.9016414E2,1.1793923E2,4.963889E1,3.8743E1,1.7516884E2,1.4995308E1,2.175102E1,9.618821E1,2.1929234E1,1.532396E2,4.6492E1,4.9696213E1],"tree_param":{"num_deleted":"0","num_feature":"5","num_nodes":"15","size_leaf_vector":"1"}},{"base_weights":[-6.6094063E-3,-2.0300671E-1,5.523286E-1,2.5600693E-1,-3.7853727E-1,3.0828613E-1,9.755551E-3,9.389066E-3,8.737483E-2,-5.0475997E-1,-0E0,5.415843E-1,-0E0,-3.183716E-3,2.4970502E-3,-5.698054E-3,5.0713395E-4,-1.993507E-3,5.6801694E-3,8.240741E-3,2.9640708E-3,3.3001166E-3,-5.4804445E-3],"categories":[],"categories_nodes":[],"categories_segments":[],"categories_sizes":[],"default_left":[0,0,0,0,0,0,0,0,0,0,0,0,0,0,0,0,0,0,0,0,0,0,0],"id":64,"left_children":[1,3,5,7,9,11,-1,-1,13,15,17,19,21,-1,-1,-1,-1,-1,-1,-1,-1,-1,-1],"loss_changes":[4.3693607E1,2.4340046E1,8.753424E0,8.26394E0,1.0134792E1,4.911793E0,0E0,0E0,4.649453E0,6.445339E0,6.546435E0,1.1162357E0,6.1804833E0,0E0,0E0,0E0,0E0,0E0,0E0,0E0,0E0,0E0,0E0],"parents":[2147483647,0,0,1,1,2,2,3,3,4,4,5,5,8,8,9,9,10,10,11,11,12,12],"right_children":[2,4,6,8,10,12,-1,-1,14,16,18,20,22,-1,-1,-1,-1,-1,-1,-1,-1,-1,-1],"split_conditions":[5.1E1,4.375E-1,6.888889E-1,3.6231884E-1,5.4320985E-1,6.1728394E-1,9.755551E-3,9.389066E-3,7.57E2,9.2E1,5.243E3,9E1,5.645E3,-3.183716E-3,2.4970502E-3,-5.698054E-3,5.0713395E-4,-1.993507E-3,5.6801694E-3,8.240741E-3,2.9640708E-3,3.3001166E-3,-5.4804445E-3],"split_indices":[4,0,0,0,0,0,0,0,2,3,1,3,1,0,0,0,0,0,0,0,0,0,0],"split_type":[0,0,0,0,0,0,0,0,0,0,0,0,0,0,0,0,0,0,0,0,0,0,0],"sum_hessian":[3.9717206E2,2.9616837E2,1.0100371E2,8.009788E1,2.1607048E2,6.77545E1,3.3249207E1,1.2878582E1,6.72193E1,1.6042162E2,5.5648865E1,3.734794E1,3.040656E1,1.6898493E1,5.0320805E1,1.451709E2,1.5250724E1,4.2887787E1,1.276108E1,1.326418E1,2.408376E1,1.9696156E1,1.0710404E1],"tree_param":{"num_deleted":"0","num_feature":"5","num_nodes":"23","size_leaf_vector":"1"}},{"base_weights":[7.948791E-2,-9.402826E-2,7.0146656E-1,2.4624829E-1,-2.0707612E-1,3.4240958E-1,1.049428E-2,-1.3903803E-1,5.332511E-1,-6.425696E-1,-1.0077445E-1,8.727261E-3,4.020329E-2,3.1833064E-3,-5.1251114E-3,9.244129E-3,1.8040193E-3,-1.1039762E-2,-5.8809505E-4,4.473233E-3,-1.7797168E-3,-5.965303E-3,4.9396083E-3],"categories":[],"categories_nodes":[],"categories_segments":[],"categories_sizes":[],"default_left":[0,0,0,0,0,0,0,0,0,0,0,0,0,0,0,0,0,0,0,0,0,0,0],"id":65,"left_children":[1,3,5,7,9,11,-1,13,15,17,19,-1,21,-1,-1,-1,-1,-1,-1,-1,-1,-1,-1],"loss_changes":[4.605493E1,1.2711167E1,9.518803E0,9.466575E0,1.07053E1,7.061068E0,0E0,6.422412E0,5.207654E0,1.1327269E1,8.574301E0,0E0,1.0677239E1,0E0,0E0,0E0,0E0,0E0,0E0,0E0,0E0,0E0,0E0],"parents":[2147483647,0,0,1,1,2,2,3,3,4,4,5,5,7,7,8,8,9,9,10,10,12,12],"right_children":[2,4,6,8,10,12,-1,14,16,18,20,-1,22,-1,-1,-1,-1,-1,-1,-1,-1,-1,-1],"split_conditions":[2.131E3,4.3589744E-1,6.7391306E-1,4.198E3,4.6341464E-1,8.8E1,1.049428E-2,7.4E1,8.1E1,4.542E3,1.084E3,8.727261E-3,9.5E1,3.1833064E-3,-5.1251114E-3,9.244129E-3,1.8040193E-3,-1.1039762E-2,-5.8809505E-4,4.473233E-3,-1.7797168E-3,-5.965303E-3,4.9396083E-3],"split_indices":[2,0,0,1,0,3,0,3,3,1,2,0,3,0,0,0,0,0,0,0,0,0,0],"split_type":[0,0,0,0,0,0,0,0,0,0,0,0,0,0,0,0,0,0,0,0,0,0,0],"sum_hessian":[4.1788663E2,3.26806E2,